tree
version=v4
num_class=1
num_tree_per_iteration=1
label_index=0
max_feature_idx=65
objective=quantile
feature_names=log_return volume_zscore_20 volume_zscore_60 volume_ratio_20 volume_spike vp_position vp_width_pct vp_above_va dist_to_sma_20 dist_to_sma_50 dist_to_sma_200 dist_to_ema_20 dist_to_ema_50 sma_20_slope_norm sma_50_slope_norm momentum_10 momentum_20 rsi_14 price_position_ma trend_signal trend_strength day_of_week day_of_month week_of_month is_month_end is_month_start overnight_gap overnight_gap_zscore rv_5d rv_10d rv_20d rv_30d rv_60d ewma_vol_10d ewma_vol_20d parkinson_vol_10d parkinson_vol_20d gk_vol_10d gk_vol_20d vol_ratio_5_20 vol_ratio_park_rv vol_ratio_20_60 up_vol_20d down_vol_20d vol_asymmetry_20d vol_momentum_5d vol_momentum_10d beta_30d correlation_30d index_vol_30d beta_60d correlation_60d index_vol_60d beta_change ivr opm vds pocs irr hvc ticker_id sector_id sector_encoded liquidity_rank is_blue_chip lot_size_log
feature_infos=[-0.53194433450698853:0.54405128955841064] [-2.9167771339416504:4.2484331130981445] [-2.532334566116333:7.6159577369689941] [-0.93768823146820068:17.269147872924805] -1:0:1 [-37.393833160400391:74.212486267089844] [0:1.7438105344772339] -1:1:2:0 [-0.51774817705154419:1.8622176647186279] [-0.59907764196395874:2.6893434524536133] [-0.70756953954696655:1.1583505868911743] [-0.48010116815567017:1.4522889852523804] [-0.5698128342628479:2.2505109310150146] [-0.07600606232881546:0.05195312574505806] [-0.037335850298404694:0.021215625107288361] [-1.0639212131500244:1.2887008190155029] [-0.94378799200057983:1.517709493637085] [0:99.895339965820312] -1:2:0:1 -1:2:0:1 [0:0.39310362935066223] -1:2:3:1:4:0 [1:31] [1:5] -1:0:1 -1:0:1 [-0.12354005873203278:0.10481586307287216] [-7.5462174415588379:7.3526492118835449] [0:6.548675537109375] [0:4.4963517189025879] [0:3.3919928073883057] [0:2.8958272933959961] [0:2.0628342628479004] [0:5.1627712249755859] [0:3.9335603713989258] [0:3.2581748962402344] [0:2.3732292652130127] [0:3.5000545978546143] [0:2.5602817535400391] [0:2.154472827911377] [0:2.6069824695587158] [0:1.741469144821167] [0:2.0009565353393555] [0:2.1888484954833984] [0:8.5230884552001953] [-0.7978864312171936:5.0169939994812012] [-0.81826740503311157:6.6045064926147461] [-4.8175973892211914:4.7820296287536621] [-0.51312440633773804:0.97729957103729248] [0:1.4185420274734497] [-2.6994266510009766:3.949810266494751] [-0.36254426836967468:0.9650154709815979] [0:1.0910866260528564] [-4.5804538726806641:2.3003292083740234] [0:1.7220042943954468] [-0.051046513020992279:0.050748750567436218] [-3.5801177024841309:3.508314847946167] [-0.63856691122055054:0.83781725168228149] [0:0.68322354555130005] [0:0.44444850087165833] -1:10:0:1:2:5:7:9:11:13:14:15:16:17:18:20:21:22:23:24:25:26:29:3:4:8:27:19:12:28 -1:5:2:3:4:9:12:7:8:11:0:6:10:1 [0:12] [0:30] [0:1] [0:9.2104406356811523]
tree_sizes=6615 6957 6979 7019 6983 6983 6982 6948 6965 6990 6992 6966 6959 6960 6998 7011 6984 6967 6991 6971 6976 6967 6953 7001 6984 6955 6948 6990 6954 6996 6997 6988 6955

Tree=0
num_leaves=63
num_cat=12
split_feature=35 33 34 12 11 60 60 17 38 49 12 32 51 35 49 52 8 39 36 20 60 2 41 50 8 42 53 52 52 60 49 17 60 39 60 12 51 37 60 20 49 13 60 60 11 36 5 20 39 60 60 44 40 49 37 49 52 9 41 29 1 60
split_gain=636.36 125.732 104.761 29.1309 27.7281 24.9649 20.7369 17.343 20.9951 16.2517 16.1905 12.6561 12.1969 11.9827 10.977 11.2795 10.1098 9.1123 9.47786 8.96925 8.26046 8.25781 7.918 7.75736 7.7461 8.7412 7.15796 7.16516 8.90156 7.10302 6.97683 6.77878 6.51941 6.40338 6.36023 6.29469 6.31168 6.29551 6.15102 5.7304 5.69941 6.60042 10.3588 5.69397 7.62175 5.62515 5.61795 5.34256 5.50655 5.14245 5.00473 5.22291 4.9829 4.94174 4.9037 4.85686 5.64246 4.78641 4.76166 4.74678 4.72548 4.71736
threshold=0.25396808981895452 0.41889078915119177 0.1836974769830704 0.082471787929534926 -0.049459850415587418 0 1 1.0000000180025095e-35 0.23372126370668414 0.23511914908885959 -0.11367268487811087 0.24765558540821078 0.50205492973327648 0.14810754358768466 0.21520669758319858 0.29261152446269995 -0.044940723106265061 0.25625699758529669 0.18064437061548236 0.0053928841371089229 2 -0.40399818122386927 1.2986032962799074 0.72911384701728832 -0.040666894987225526 0.07555683329701425 0.29383996129035955 0.35660818219184881 0.15708625316619876 3 0.22996978461742404 48.289041519165046 4 1.0571520328521731 5 0.020380089990794662 0.67127740383148204 0.2362511679530144 6 0.053789654746651656 0.1016809605062008 0.0046834873501211413 7 8 0.080277130007743849 0.15458413958549502 1.4518195390701296 0.033342139795422561 1.0484142899513247 9 10 0.65967532992362987 1.1123684048652651 0.29903069138526922 0.3500590324401856 0.13836537301540378 0.10952708125114442 0.05523927882313729 1.002572298049927 0.17186237871646884 0.40438893437385565 11
decision_type=2 2 2 2 2 1 1 2 2 2 2 2 2 2 2 2 2 2 2 2 1 2 2 2 2 2 2 2 2 1 2 2 1 2 1 2 2 2 1 2 2 2 1 1 2 2 2 2 2 1 1 2 2 2 2 2 2 2 2 2 2 1
left_child=2 4 5 7 -2 16 11 -4 13 12 54 50 40 -9 29 23 -1 -7 -19 32 59 -13 26 -16 25 -22 27 28 34 -10 45 60 -15 -27 55 37 49 -31 -12 -17 -8 42 52 -5 -45 -18 -26 -28 -49 -37 51 -6 -42 -40 -3 56 -14 -47 -59 -21 -11 -30
right_child=1 10 3 43 6 17 9 8 14 31 38 21 22 19 15 39 30 18 -20 20 24 -23 -24 -25 46 33 47 -29 61 35 -32 -33 -34 -35 -36 36 -38 -39 53 -41 41 -43 -44 44 -46 57 -48 48 -50 -51 -52 -53 -54 -55 -56 -57 -58 58 -60 -61 -62 -63
leaf_value=0.22437795318408224 0.22972505688667297 0.22200507266658517 0.22628129571676253 0.22343987300992013 0.22677259147167206 0.22606833959946634 0.22886212915182114 0.21802053824067116 0.22220249101519585 0.2249252326786518 0.22753487744304959 0.22307125106453896 0.22066281059087989 0.22076661810278891 0.22544581145048143 0.22462020069360733 0.2187323547899723 0.21956146383388303 0.22248959839344024 0.22544603049755096 0.21963825300335885 0.22625105530023576 0.22205270560289989 0.23194104920574538 0.22103101462125779 0.22197624817490577 0.21971497573792725 0.21882134266197681 0.22442115470767021 0.22162110136134533 0.22436214836929691 0.22911393493413926 0.22521790415048598 0.22560560623062831 0.22485157891756044 0.22356114912468977 0.22203338369727135 0.22383877864974258 0.2288190320134163 0.21980457621664781 0.22209368646144867 0.22695778906345368 0.22531915903091432 0.22638934850692749 0.2219038384152871 0.21976568549871445 0.22551410347223283 0.22659134715795518 0.2207546745198268 0.22552719563245774 0.22137309536337851 0.22264509946107863 0.22616759836673736 0.23659252226352692 0.23732260018587112 0.2206030755463064 0.22869984518209924 0.22213959314647622 0.2205913697811471 0.22219939082860946 0.22860559970140457 0.22713101431139862
leaf_weight=40.170648694038391 559.49237561225891 21.654037594795227 171.91483700275421 315.29016655683517 57.340862214565277 76.903543710708618 269.43140888214111 196.27326148748398 564.55058240890503 300.0419989824295 538.52757811546326 444.20184749364853 32.524948596954346 114.52765440940857 121.14309793710709 96.550081074237823 1391.2080870866776 714.97757589817047 655.41872262954712 74.25726318359375 37.724909484386444 603.74870383739471 134.17680633068085 95.536769807338715 1543.8156110644341 67.860429167747498 83.084835290908813 55.961427867412567 136.86648237705231 364.76663565635681 20.085478901863098 683.80698102712631 253.77168118953705 65.992570221424103 725.23422026634216 232.69196611642838 168.67588573694229 259.83885306119919 919.54116541147232 48.402051627635956 140.41597229242325 502.81259375810623 837.25066614151001 373.4480145573616 53.707536578178406 1339.607960164547 44.944428145885468 85.491812646389008 48.714509010314941 280.60543674230576 367.83510237932205 136.62803387641907 22.49974000453949 598.93196392059326 1172.2232857346535 110.66369247436523 51.542314767837524 89.124234735965729 44.277684271335602 444.76654422283173 64.181668400764465 289.54064607620239
leaf_count=43 589 16 160 261 70 76 302 159 612 268 576 547 26 115 130 100 1302 615 684 80 32 748 111 76 1347 58 79 49 132 377 23 615 243 61 745 249 138 281 998 39 126 548 961 313 43 1349 41 83 44 278 435 167 24 599 1176 88 41 76 39 478 58 220
internal_value=0.223922 0.232924 0.215241 0.219536 0.229029 0.209355 0.228063 0.218225 0.217695 0.229774 0.241002 0.223173 0.22816 0.214845 0.221327 0.229295 0.206675 0.214955 0.213952 0.215733 0.214563 0.226411 0.2252 0.236522 0.212938 0.223 0.226169 0.22748 0.228212 0.219784 0.206269 0.235256 0.222988 0.228964 0.225437 0.221875 0.225176 0.218233 0.238305 0.218525 0.231085 0.229878 0.227521 0.228802 0.232461 0.206062 0.211786 0.217736 0.22387 0.227939 0.217112 0.223847 0.216254 0.240007 0.245642 0.217608 0.226297 0.208234 0.217334 0.220362 0.229721 0.234185
internal_weight=20357.2 9994.37 10362.8 5991.06 6743.49 4371.77 6184 5248.61 5076.7 4574.24 3250.88 1609.75 3526.21 2843.93 2232.76 361.632 2924.47 1447.3 1370.4 2647.66 2279.36 1047.95 1753.8 216.68 1760.34 171.578 1619.62 1402.33 1346.37 1871.13 2884.3 1048.03 368.299 133.853 919.965 1306.58 681.973 624.605 2057 144.952 1772.41 1502.98 1000.17 742.446 427.156 2864.22 1588.76 217.291 134.206 513.297 561.804 193.969 162.916 1518.47 1193.88 194.731 84.0673 1473.01 133.402 519.024 364.224 426.407
internal_count=20319 10441 9878 5671 7076 4207 6487 5054 4894 4520 3365 1967 3579 2614 2280 345 2832 1375 1299 2455 2097 1295 1618 206 1539 151 1507 1301 1252 1935 2789 941 358 119 900 1323 665 658 2173 139 1961 1659 1111 617 356 2766 1388 206 127 527 672 237 150 1597 1192 155 67 1464 115 558 326 352
cat_boundaries=0 1 2 3 4 5 6 7 8 9 10 11 12
cat_threshold=25268106 545331979 38929457 3254840 5320192 303108 113317136 117579776 2465954 549470469 545325057 104873988
is_linear=0
shrinkage=1


Tree=1
num_leaves=63
num_cat=9
split_feature=35 34 34 11 60 11 11 22 38 20 35 49 60 60 2 11 60 43 5 35 49 32 60 52 60 42 34 60 8 60 11 20 36 41 32 15 38 15 60 48 46 43 38 37 35 42 49 28 63 6 11 16 5 52 32 52 22 22 41 62 30 30
split_gain=571.251 118.844 98.9769 24.291 23.0076 20.1792 20.0627 17.5168 16.342 24.1202 13.7158 13.6349 16.4918 11.6024 11.7794 10.4924 10.3735 9.94347 8.94189 8.62768 8.19235 8.07226 8.03142 8.21251 7.92264 7.64917 7.59608 6.99297 6.96422 6.41915 6.95679 6.20602 6.03141 5.90693 5.64932 6.18874 6.02952 7.4622 5.71098 5.42747 8.74286 5.34998 5.28251 5.1868 5.17939 6.56426 5.24799 5.14205 5.00911 4.90822 5.22666 4.84176 4.79576 4.66525 6.6388 4.65101 4.64404 4.61207 5.93308 4.598 4.5493 5.38735
threshold=0.25396808981895452 0.41444584727287298 0.17575620859861377 0.039134318009018905 0 -0.081963438540697084 -0.054711641743779175 19.500000000000004 0.23372126370668414 0.0037829708307981495 0.14810754358768466 0.26601912081241613 1 2 -0.57092630863189686 -0.025571960024535653 3 0.031532950699329383 0.68324324488639843 0.29405264556407934 0.26601912081241613 0.50191944837570202 4 0.35589355230331426 5 0.073354125022888197 0.33820363879203802 6 -0.044940723106265061 7 0.080277130007743849 0.056565595790743835 0.27673409879207617 1.002572298049927 0.20522087067365649 0.15169272571802142 0.26441180706024175 0.10543533414602281 8 0.47744181752204901 0.16264850646257403 0.17255512624979022 0.57911813259124767 0.42799168825149542 0.1335464343428612 0.063884738832712187 0.11410297453403474 0.14186205714941028 10.500000000000002 0.079207330942153945 -0.025108682923018929 0.1279513090848923 -1.0772197842597959 0.092954602092504515 0.22436138987541202 0.35615740716457372 16.500000000000004 19.500000000000004 0.44005797803401953 5.5000000000000009 0.20793409645557406 0.3790013194084168
decision_type=2 2 2 2 1 2 2 2 2 2 2 2 1 1 2 2 1 2 2 2 2 2 1 2 1 2 2 1 2 1 2 2 2 2 2 2 2 2 1 2 2 2 2 2 2 2 2 2 2 2 2 2 2 2 2 2 2 2 2 2 2 2
left_child=2 6 4 8 28 -3 -2 11 9 24 -11 12 47 14 -9 25 19 -6 33 -7 22 43 23 49 -4 -12 41 -17 -1 30 -20 44 -22 59 35 -14 37 -36 -38 51 60 53 -18 -13 -19 46 -46 -8 -42 -10 -51 -15 -47 -16 -55 -40 -34 58 -29 -5 -41 -62
right_child=1 5 3 18 17 16 7 13 20 10 15 21 34 39 26 27 42 31 29 -21 32 -23 -24 -25 -26 -27 -28 57 -30 -31 -32 -33 56 -35 36 -37 38 -39 55 40 48 -43 -44 -45 45 52 -48 -49 -50 50 -52 -53 -54 54 -56 -57 -58 -59 -60 -61 61 -63
leaf_value=0.00083185840783347044 0.0053419861197471627 0.018013797625899313 -0.0032233968004584308 0.0041337574120436328 0.0025545735233378402 -0.0029759403318166734 -0.0021730926346267337 -0.0026849003508687022 -8.0768133947013715e-05 -0.0053273164066507082 -0.0035863039270043378 0.0064844358992702886 0.0046507143974304195 0.0012408633530139922 0.0078120794987484379 -0.0014810254424810405 0.0053961043804883957 -0.0049737575769938343 0.0018788681179285048 0.0041932597011327746 -0.001107081332728753 -0.00010128039866685867 -0.0014775237068533897 -0.0033752181753516201 0.0017237576989650842 0.00032214005508146408 0.0028913602977991104 0.0029091832786798475 -0.0044052517786622048 -0.0011147378012537957 -0.001948555941350369 0.001601772487436683 0.0066861537641542601 0.00016115527600049919 -0.0002413070201873785 -0.00035671070218086244 0.0045742820334010925 0.0051128545350234561 0.0014763986319303508 -0.0020435964611253111 -0.0027390658591075899 -0.0035455762777448067 0.0099230834469199187 0.0014570634771462827 0.0015182578191161159 0.00047708088325384442 -0.0024256571009755134 0.00011272494079002522 -0.00035175683331774982 -0.0014314705878496177 0.0020327368734087609 0.0040545106679201123 -0.0031700554609812612 -0.0022357612475752825 0.00045891419439107045 -0.0031801802334558201 0.0019243890747376717 -0.0035583262860586782 -0.0028127519579413517 -0.0018749825283884997 0.0018698031268264761 -0.002597107663750649
leaf_weight=20.959001064300537 407.51317238807678 846.12455374002457 115.07876199483871 143.65239799022675 60.734275758266449 46.442066252231598 93.276412963867188 197.55877017974854 677.59670931100845 246.27432948350906 75.271190524101257 367.28783094882965 276.91189682483673 479.16447234153748 31.654728949069977 793.12142956256866 1116.4179828763008 436.83190900087357 267.33465486764908 849.71309453248978 55.454313695430756 100.26996642351151 1123.481169462204 55.018979966640472 338.4513846039772 319.95554238557816 175.68967586755753 19.772422730922699 1830.670411169529 394.57852190732956 41.288970232009888 59.265111148357391 90.184168457984924 118.53859961032867 349.66297698020935 28.257838726043701 437.13168102502823 42.578939199447632 1009.4590141177177 33.638864099979401 111.38742899894714 89.547570049762726 765.14104598760605 115.07567572593689 67.755061507225037 49.076184213161469 69.167355358600616 822.84588444232941 132.84365028142929 40.202638983726501 121.33528739213943 130.73052793741226 1228.729788184166 134.05294013023376 248.78471040725708 20.792757332324982 72.712956190109253 561.9666121006012 840.3577823638916 28.012282311916351 455.58406919240952 78.827482461929321
leaf_count=23 421 853 129 111 63 56 113 216 733 199 72 358 260 565 32 752 1085 384 226 963 59 106 1138 53 301 308 183 17 1651 360 28 56 82 109 302 22 445 41 1113 33 76 97 799 128 68 53 79 916 155 42 111 156 1291 148 264 23 68 516 764 32 448 64
internal_value=3.61867e-05 0.00856515 -0.00818904 -0.0044516 -0.0145804 0.0157947 0.00445171 0.00371692 -0.00574155 -0.0079728 -0.00967374 0.00586391 0.00453464 0.000293998 -0.0041988 -0.0086057 0.0137298 -0.0106126 0.00274509 0.00891185 -0.00243585 0.0128824 -0.00343319 0.000130228 0.00272986 -0.00108645 -0.00111444 -0.00994488 -0.0186438 -0.00029575 0.00501257 -0.0113007 0.00675429 0.0101283 0.00689687 0.0132467 0.00588859 0.000368297 0.00736067 0.00307695 0.00041534 -0.00424143 0.0158895 0.0155652 -0.0118113 -0.0103309 3.72414e-05 -0.00110521 -0.007487 0.00136512 0.00919568 0.00666337 -0.0114458 -0.00183183 -0.00336943 0.00514661 0.0116131 -0.012068 -0.00983339 0.0160563 0.00382244 0.00495273
internal_weight=20357.2 9994.37 10362.8 6539.64 3823.19 3623.84 6370.53 5963.02 5546.24 3310.25 2856.72 3663.55 3080.92 2299.46 877.288 2610.44 2777.71 1971.56 993.405 896.155 2235.99 582.633 2017.63 894.154 453.53 395.227 679.73 2215.22 1851.63 703.202 308.624 1910.83 218.351 290.203 2164.8 305.17 1859.63 392.242 1467.38 1422.18 812.281 504.04 1881.56 482.364 1851.56 1414.73 136.922 916.122 244.231 839.135 161.538 609.895 1277.81 414.492 382.838 1030.25 162.897 1422.1 860.13 171.665 568.05 534.412
internal_count=20319 10441 9878 6210 3668 3756 6685 6264 5344 3058 2628 3827 3235 2437 940 2429 2903 1994 866 1019 2286 592 2077 939 430 380 724 2049 1674 614 254 1931 209 252 2206 282 1924 343 1581 1497 776 541 1884 486 1875 1491 147 1029 231 886 153 721 1344 444 412 1136 150 1297 781 143 545 512
cat_boundaries=0 1 2 3 4 5 6 7 8 9
cat_threshold=25232514 109255434 549565191 616634136 1032733699 542181888 41050161 122292485 419472388
is_linear=0
shrinkage=0.05


Tree=2
num_leaves=63
num_cat=6
split_feature=35 33 34 60 12 12 11 17 38 60 34 8 49 35 49 49 50 60 14 46 36 39 49 11 44 35 49 60 41 39 12 52 10 52 5 11 46 50 12 14 44 52 20 6 47 28 60 47 44 50 10 44 20 44 11 41 60 5 62 41 52 35
split_gain=525.831 106.082 94.02 28.614 25.9456 23.8443 23.7694 16.0804 17.8086 14.9685 10.8706 10.3369 10.242 9.43892 8.88848 8.33974 8.23621 8.21125 7.2385 7.04987 7.02034 6.76788 8.13283 6.48442 10.1914 6.25578 6.61731 6.17689 6.14284 5.85809 5.83358 5.7921 9.01555 5.73236 5.67188 6.28804 5.59648 5.52861 6.43443 5.43495 5.46595 5.41409 5.27867 8.23752 8.0501 5.264 5.24618 7.87409 6.84483 5.20352 6.77545 5.11543 5.10217 5.62895 5.6806 4.79796 6.42896 5.19917 4.78334 4.7759 5.3209 4.75461
threshold=0.25396808981895452 0.38060395419597631 0.1836974769830704 0 -0.10939477011561392 0.082471787929534926 -0.054711641743779175 1.0000000180025095e-35 0.22073699533939364 1 0.28265379369258886 -0.044940723106265061 0.26601912081241613 0.14810754358768466 0.25674836337566381 0.30106374621391302 0.55148848891258251 2 0.0044274097308516511 0.013412487693130972 0.15458413958549502 0.25625699758529669 0.099674146622419371 -0.025571960024535653 1.8641912341117861 0.40442882478237158 0.31097891926765447 3 0.41043584048748022 0.8586956560611726 0.044352339580655105 0.35589355230331426 -0.071722526103258119 0.20453418046236041 0.73215597867965709 0.080277130007743849 -1.0000000180025095e-35 0.98447167873382579 0.016722305677831176 0.00089293802739121031 0.8134005367755891 0.090245403349399581 0.054338544607162483 0.059486340731382377 0.8791663944721223 0.1468123868107796 4 0.72926953434944164 1.0707236528396609 0.61385351419448864 -0.25500792264938349 1.0596684217453005 0.085248395800590529 1.1585071086883547 -0.0095842885784804804 0.66698554158210765 5 0.31169939041137701 5.5000000000000009 0.74969369173049938 0.14053245633840564 0.21375291794538501
decision_type=2 2 2 1 2 2 2 2 2 1 2 2 2 2 2 2 2 1 2 2 2 2 2 2 2 2 2 1 2 2 2 2 2 2 2 2 2 2 2 2 2 2 2 2 2 2 1 2 2 2 2 2 2 2 2 2 1 2 2 2 2 2
left_child=2 6 3 11 -3 7 -2 -4 13 10 30 -1 17 -9 16 27 -11 42 -18 34 -13 -5 41 24 -15 28 -27 52 -16 46 -8 32 -19 39 58 -36 -32 38 -34 -22 -41 -23 -10 -44 -45 -12 47 -30 -49 -14 -51 -35 53 54 -6 -24 57 -57 -7 60 -42 -21
right_child=1 4 5 21 15 19 9 8 12 14 45 20 49 23 25 -17 18 31 -20 61 33 22 55 -25 -26 26 -28 -29 29 -31 36 -33 37 51 35 -37 -38 -39 -40 40 59 -43 43 44 -46 -47 -48 48 -50 50 -52 -53 -54 -55 -56 56 -58 -59 -60 -61 -62 -63
leaf_value=0.00043885280140573457 0.0055222627603144147 0.011155915573308381 0.0022367536120200164 0.0016585248610661131 0.0047816586270928389 0.0048683063954309911 -0.0019843211120350568 -0.0053178748542974316 -0.0018136196005640037 0.0020357577241957177 -0.001733396591189082 -0.0046526558008044951 -0.0010177436972331388 0.00069292176280512374 -0.00032723930484237769 0.0088992447890341286 0.00042062521464466819 0.0018137977297491615 0.0025709273035781802 0.0013919438440432627 -0.0039540097545832393 -0.00081392480193610459 -0.0029265797379263115 -0.0023076754864567437 -0.0038010543235729752 -0.0019435139652341602 0.0030462177246809012 0.0045750798769295204 0.0033693216540807134 0.0079194314577573192 0.0032151896343205616 -0.0026196974614923737 -0.0025067538508782268 0.0082570482349671667 0.0012960217773507856 -0.0018511281442828501 -0.0012647085955149588 9.3602573018211632e-05 -0.00024048150687852878 -0.00074300347712704913 0.0028148559740176328 -0.0038067118788253709 -0.0027538879903282357 -0.0044259723085169891 0.0024809324875299668 0.0017004843894392247 0.0050857810675160051 -0.0028987201160813256 0.0051169445710068963 -0.00030256167895690016 0.0070855241390751916 -0.0048201163703177514 -0.0013040551961489373 -0.00085571765644925062 0.0016160070593787116 -0.00075942825192584469 0.00052448259353894688 -0.0041645032132160116 0.00033642351813614334 -0.003613802088424563 -0.0033983695117988503 -0.0019464301108504574
leaf_weight=40.170648694038391 357.7509418129921 1348.8476484417915 171.91483700275421 81.886470675468445 63.977410912513733 178.91411733627319 535.05586010217667 185.28117662668228 878.52144151926041 774.27840876579285 70.385596990585327 1369.8526858091354 100.09496915340424 186.55430060625076 57.128160238265991 948.20068633556366 2356.8678340315819 145.49273550510406 323.96162408590317 95.575494945049286 891.45903486013412 91.271725356578827 245.11677139997482 1660.6646880507469 88.570414066314697 69.142491519451141 93.167799293994904 1274.6621824502945 51.679924845695496 172.29708057641983 86.16327840089798 79.168571412563324 306.72470116615295 23.640166461467743 209.75291073322296 37.514200747013092 119.78084200620651 695.31717276573181 376.43521761894226 205.11985856294632 23.805266439914703 547.3427551984787 106.7073347568512 27.546877443790436 96.451233446598053 683.07459104061127 124.74705421924591 42.110722303390503 27.391044497489929 51.183574259281158 91.981304347515106 35.908185839653015 40.29568612575531 101.33616369962692 272.06464868783951 179.82861530780792 274.70569777488708 111.14571821689606 59.197943806648254 227.40634965896606 23.11398583650589 161.4910501241684
leaf_count=43 371 1358 160 83 54 139 652 150 772 812 88 1272 104 178 47 948 2327 166 337 69 891 87 243 1553 77 66 87 1476 47 159 109 85 342 27 180 26 143 747 420 195 24 530 85 28 61 831 101 36 28 41 85 41 38 92 234 149 313 88 69 196 25 134
internal_value=-2.37572e-05 0.00815864 -0.0079157 -0.0134913 0.0144006 -0.00384608 0.00390598 -0.0050329 -0.00554288 0.0031047 -0.00118073 -0.0164735 -0.00303147 -0.00903975 0.00466221 0.0115669 0.00367011 -0.00391414 0.00235537 0.0045368 -0.0168934 -0.00779715 -0.00863962 -0.0080027 -0.000872508 0.0101016 0.00158998 0.00951437 0.0129965 0.0150984 -0.00549074 -0.00158138 -0.000902273 -0.0144274 0.00808418 0.002753 0.00163927 -0.00215494 -0.00535028 -0.0150872 -0.0107628 -0.0128651 -0.00720151 -0.000512267 0.0082265 0.00303586 0.0101012 0.00168412 -0.00911638 0.00678737 0.0129033 0.000678225 0.00432828 0.00599574 0.00911478 -0.00530411 -0.00275954 -0.00778674 0.0135959 -0.015386 -0.000748202 -0.00214226
internal_weight=20357.2 9994.37 10362.8 4371.77 4049.38 5991.06 5944.98 5248.61 5076.7 5587.23 1494.46 2840.48 2955.63 2121.07 4092.77 2700.54 3455.11 2712.37 2680.83 742.446 2800.31 1531.3 1449.41 1935.79 275.125 637.664 162.31 1752.34 475.354 418.226 741 1603.14 1523.97 1430.45 485.379 247.267 205.944 1378.48 683.16 1370.9 479.445 638.614 1109.23 230.705 123.998 753.46 245.929 121.182 69.5018 243.26 143.165 59.5484 477.674 437.378 336.042 810.797 565.68 290.974 238.112 274.326 46.9193 257.067
internal_count=20319 10441 9878 4207 4200 5671 6241 5054 4894 5870 1823 2714 2936 1958 4047 2842 3476 2706 2664 617 2671 1493 1410 1808 255 571 153 1894 418 371 904 1760 1675 1399 414 206 252 1509 762 1331 440 617 946 174 89 919 212 111 64 230 126 68 418 380 288 793 550 237 208 245 49 203
cat_boundaries=0 1 2 3 4 5 6
cat_threshold=25268098 545331979 18983832 107046048 67280900 543170560
is_linear=0
shrinkage=0.05


Tree=3
num_leaves=63
num_cat=2
split_feature=35 43 34 12 12 36 33 11 17 38 17 38 37 17 22 14 2 22 28 36 11 14 44 46 52 52 31 10 52 61 47 40 40 11 46 63 5 11 32 14 52 10 12 10 61 20 42 20 1 10 39 12 32 52 11 44 32 42 35 47 32 1
split_gain=483.326 104.655 89.6672 21.656 19.9864 18.7278 17.3092 15.959 15.6221 17.0583 12.8997 11.376 10.3629 10.0548 11.5123 9.48868 9.10025 8.60777 9.66421 7.38913 7.27746 7.23838 6.65187 6.61198 6.48142 9.90984 7.08814 6.64224 6.20332 6.14956 7.58571 6.08438 6.08259 5.88066 5.78509 5.60922 5.37066 6.16794 5.21624 10.1836 6.98272 6.44968 8.16286 5.4996 6.54138 5.40147 6.66626 5.31556 5.71619 5.29955 5.1537 5.16126 5.07974 7.09532 4.89876 10.4605 4.83221 4.76708 4.75461 4.92963 4.69092 5.01646
threshold=0.25396808981895452 0.23344218730926516 0.1836974769830704 0.082471787929534926 -0.10939477011561392 0.17957115173339847 0.38695466518402105 -0.058735717087984078 12.332814216613771 0.22073699533939364 1.0000000180025095e-35 0.12501306086778644 0.14575545489788058 76.421070098876967 19.500000000000004 0.0038496601628139619 -0.60327601432800282 14.500000000000002 0.3823924213647843 0.3067914098501206 -0.029008781537413594 -0.0039016952505335207 2.7366070747375493 0.013412487693130972 0.17968328297138217 0.35589355230331426 0.35476472973823553 -0.087767470628023134 0.15685400366783145 0 1.1706207394599917 1.0820558667182925 1.1332029700279238 -0.018664686009287831 -0.097830954939126955 3.5000000000000004 0.73215597867965709 0.080277130007743849 0.22436138987541202 0.0025920750340446834 0.34640301764011389 -0.066488910466432558 0.022554405033588413 -0.075560621917247758 1 0.054338544607162483 0.21093959361314776 0.0049276056233793506 1.1152656078338625 0.14090158790349963 1.1927983164787295 -0.060632953420281403 0.22753729671239856 0.091467622667551055 -0.025571960024535653 2.0580582618713383 0.21815511584281924 0.13919439911842349 0.21375291794538501 0.72926953434944164 0.13889288157224658 -0.67457658052444447
decision_type=2 2 2 2 2 2 2 2 2 2 2 2 2 2 2 2 2 2 2 2 2 2 2 2 2 2 2 2 2 1 2 2 2 2 2 2 2 2 2 2 2 2 2 2 1 2 2 2 2 2 2 2 2 2 2 2 2 2 2 2 2 2
left_child=2 6 5 8 -3 10 7 -2 -4 12 -1 -12 -10 14 24 16 -16 28 34 38 -7 -18 -13 36 33 27 -27 50 57 30 60 -28 -17 -9 -19 -21 -5 56 39 41 43 -11 -43 44 -40 46 47 -45 -49 -47 51 -26 53 -23 55 -14 -38 -6 -25 -60 -22 -62
right_child=1 4 3 23 17 20 -8 13 9 19 11 22 54 -15 15 32 21 18 -20 35 29 52 -24 58 25 26 31 -29 -30 -31 -32 -33 -34 -35 -36 -37 37 -39 40 -41 -42 42 -44 45 -46 49 -48 48 -50 -51 -52 -53 -54 -55 -56 -57 -58 -59 59 -61 61 -63
leaf_value=0.00032243271133282011 0.0051075391949595428 0.010576112258430845 0.0018746590105053044 0.0040185181231981995 -0.0032238899095536344 0.00044451233168190524 0.0032346884405663997 0.0030088216697241655 -0.0049983553720219656 0.0013851036670306999 -0.0051803338990546767 -0.0035113619473287404 0.00061461516060818408 0.0018776393986290997 -0.0020815318592410773 0.0034404425745829942 0.0031250549754127874 0.0035506933263415893 0.0077655252324417227 0.0058592123472263448 -0.0042533822019584474 0.0021630537608550424 0.001110823041727599 0.0013223466518410996 -0.00032162764715030909 -0.0035470276712329025 -0.0010370469138531728 0.007704164368472992 0.0080206329730013251 -0.0030813388806379878 0.00092652137624510314 0.0068891447904289088 -0.0013208615729585302 0.00022241330495136882 -2.4954933668454306e-05 0.00030372252929182779 0.0035766297497210678 -0.0017585717370687079 -0.00061715975536729426 0.0028110714110071745 -0.002393906185496078 -0.0035960268239513152 -0.0017154770879152224 0.0011357289151266105 0.0030735226588925386 -0.00043298342666464183 -0.0022703069437580502 -0.00117421902459887 0.0011066406849860072 0.0018797761807780216 -0.00072747088930876598 0.0048361971848647645 7.7954045522149465e-05 -0.0020393817699830732 -0.0021609457467669543 -0.0036788936181684803 0.00014176669522062362 0.0031194122440165589 0.0023888163785404449 -0.0019825369055609639 -0.0025999979024682578 -0.00083378534988355407
leaf_weight=86.560944020748138 223.28614115715027 1397.9877434372902 190.07723319530487 238.11206114292145 23.931690156459808 114.09390670061111 1168.3180223703384 283.05358111858368 187.88009583950043 52.452521145343781 782.8250452876091 2118.5242103934288 200.74473166465759 705.04525953531265 388.43618005514145 159.43436789512634 69.381776094436646 173.65540838241577 648.74331933259964 52.151916325092316 40.229693412780762 50.078863024711609 26.215911984443665 95.575494945049286 87.496852874755859 80.096438348293304 63.442158818244934 253.18089336156845 693.08022630214691 643.91514176130295 68.325052499771118 81.744402885437012 90.535017371177673 1610.154919564724 317.97058057785034 252.75530886650085 40.84262478351593 37.514200747013092 98.609769225120544 60.700592637062073 188.44918590784073 310.33695244789124 262.91004776954651 149.54651302099228 106.50525504350662 130.60497134923935 76.855600714683533 999.3517130613327 97.911019265651703 102.91434979438782 88.555708765983582 196.18400353193283 740.69512373209 269.92952477931976 1658.2710889577866 69.58168351650238 168.91028594970703 129.94947791099548 37.767368018627167 123.72368210554123 146.46599900722504 344.61803102493286
leaf_count=88 228 1404 178 208 25 122 1256 304 151 55 682 1979 191 740 428 166 72 168 670 35 46 56 24 69 90 98 57 261 694 749 55 89 108 1696 340 277 29 26 94 44 176 306 259 153 117 127 74 1015 99 91 85 184 791 271 1552 60 151 160 34 100 139 323
internal_value=-7.11808e-05 0.00777353 -0.00763744 -0.00366313 0.0149229 -0.0130825 0.00411051 0.00292334 -0.0047942 -0.00532365 -0.0152808 -0.0158436 -0.00874802 0.00236184 0.00149276 -0.00165107 -0.0031394 0.0116933 0.00884583 -0.0028583 -0.00819746 -0.000864957 -0.0139522 0.00432567 0.00352081 0.00714787 -0.00182428 0.0103875 0.0155198 -0.00930743 -0.00533697 0.00473735 0.00736799 0.00188808 0.00354326 0.00450251 0.00776126 0.00257315 -0.00371139 -0.00746337 -0.00238832 -0.00936502 -0.0109041 -0.00140654 0.00628079 -0.00242268 -0.00366167 -0.00277518 -0.00398324 0.0045775 0.00611404 0.00940598 -0.0018931 -0.00715702 -0.00765103 -0.00138708 0.00593153 0.00638184 -0.00214226 -0.00738654 -0.00744828 -0.00608693
internal_weight=20357.2 9994.37 10362.8 5991.06 3385.32 4371.77 6609.05 5440.73 5248.61 5058.53 3014.13 2927.57 2116.48 5217.45 4512.4 1768.49 1518.52 1987.33 1140.37 2942.06 1357.65 1130.09 2144.74 742.446 2743.91 850.7 225.283 625.417 846.961 1243.55 599.639 145.187 249.969 1893.21 491.626 304.907 485.379 247.267 2637.15 686.4 1950.75 625.7 573.247 1762.3 205.115 1557.18 1323.66 1246.81 1097.26 233.519 372.237 283.681 1060.7 320.008 1928.6 270.326 209.753 153.881 257.067 161.491 531.314 491.084
internal_count=20319 10441 9878 5671 3461 4207 6980 5724 5054 4876 2773 2685 1954 5496 4756 1892 1618 2057 1178 2922 1434 1190 2003 617 2864 864 244 620 879 1312 563 146 274 2000 508 312 414 206 2610 664 1946 620 565 1770 211 1559 1341 1267 1114 218 359 274 1118 327 1803 251 180 185 203 134 508 462
cat_boundaries=0 1 2
cat_threshold=617 2580
is_linear=0
shrinkage=0.05


Tree=4
num_leaves=63
num_cat=7
split_feature=34 38 36 38 17 60 8 44 15 60 38 60 60 49 12 8 12 28 8 16 53 8 6 31 37 50 6 52 53 3 17 3 31 6 38 38 31 22 48 60 42 35 49 52 14 51 47 12 48 49 51 60 60 29 40 36 64 8 31 38 33 28
split_gain=449.712 112.134 69.3536 26.0686 24.6931 19.9891 19.1042 18.7285 18.2327 15.5313 14.52 14.1868 12.9655 11.8939 10.3211 9.62562 8.73816 8.70635 8.56018 8.4818 10.5674 7.93822 7.66928 7.39486 7.19712 6.78053 6.27289 6.00702 6.00623 6.40632 5.98254 6.5222 6.86497 5.90825 5.9048 5.72345 5.63469 5.52979 5.43689 5.38786 7.95221 5.38228 5.4168 9.25461 6.04188 5.55372 5.2869 5.17404 5.59222 5.51735 9.04947 8.27222 7.43194 5.67346 5.46765 5.20088 5.07408 4.97331 4.91372 4.85977 4.81216 4.95701
threshold=0.2447985261678696 0.45238657295703893 0.17595899105072024 0.26441180706024175 1.0000000180025095e-35 0 -0.059500558301806443 0.25692285597324377 -0.084373727440834032 1 0.12501306086778644 2 3 0.15319839119911197 0.079718459397554411 -0.04166127182543277 0.10550862923264505 0.35556204617023474 0.066603522747755065 -0.048265401273965829 -0.05242375656962394 -0.06148181110620498 0.0843026638031006 0.22206561267375949 0.14945210516452792 1.4475796818733218 0.068035595118999495 0.1237323470413685 -0.091172724962234483 -0.48242551088333124 80.002635955810561 -0.37152707576751703 0.25564818084239965 0.050948426127433784 0.60099306702613842 0.18077315390110019 0.33570432662963873 20.500000000000004 0.70104211568832409 4 0.069614414125680937 0.29116967320442205 0.19248519092798236 0.27675437927246099 0.00067619141191244136 0.75870364904403698 0.46441946923732763 -0.0298084607347846 0.81881710886955272 0.15396427363157275 0.69099274277687084 5 6 0.19099356234073642 1.0344335436820986 0.22544732689857486 1.0000000180025095e-35 0.12306803464889528 0.24340687692165378 0.23839094489812854 0.21698286384344104 0.26886230707168585
decision_type=2 2 2 2 2 1 2 2 2 1 2 1 1 2 2 2 2 2 2 2 2 2 2 2 2 2 2 2 2 2 2 2 2 2 2 2 2 2 2 1 2 2 2 2 2 2 2 2 2 2 2 1 1 2 2 2 2 2 2 2 2 2
left_child=2 3 4 7 56 15 -3 -2 -5 13 -6 17 30 -9 24 46 21 -8 23 20 -12 -11 28 25 -7 59 39 -22 -14 -30 31 33 57 -10 37 -26 -15 -13 -25 -21 -41 42 44 -44 -23 -46 -4 54 49 52 51 -51 55 -54 -37 -49 -1 -33 -24 -17 -16 -62
right_child=1 6 5 8 10 14 11 9 12 16 19 34 22 36 60 18 -18 -19 -20 26 27 41 58 38 35 -27 -28 -29 29 -31 -32 32 -34 -35 -36 47 -38 -39 -40 40 -42 -43 43 -45 45 -47 -48 48 -50 50 -52 -53 53 -55 -56 -57 -58 -59 -60 -61 61 -63
leaf_value=-0.0016245641224823778 0.0028341755493033597 0.014258805889483986 0.0024727480732779777 0.0051230401696607669 -0.0049098232666961892 -0.003411059556114435 0.00014316947902426325 -0.0034041098679647185 -0.002955206848178335 0.0039511142335404972 -0.0051740606297785811 0.0072163497037413598 -0.0010633002012007565 0.00097750934910950942 0.0016024659569174211 -0.0031507235649922759 0.002173060021853245 0.0045802818117951288 0.002183802935292503 -0.0036357264919636974 0.0021841898033665599 -0.0017285924186659864 -0.0014181863721339214 -0.0016919516075628626 0.00090692190350526733 0.0010553139323138741 0.00010568040531828694 -0.0022400330657919611 -0.001371079471146436 0.0010808857162876704 0.0042893137353147244 0.00066430657726437305 0.0024599747816743673 0.00098314892095663353 0.0088155294524845471 -0.0016747772654016812 -0.003291066211442796 0.0027000279874426578 0.0011325603310474914 -0.0015385975258572508 -0.0035236280963750117 -0.0021788348001952314 0.0035805889250361206 -0.0034910290062064491 0.00048098781580391687 -0.0024961050288486533 -0.00072114239883735727 -0.0023553570010748696 0.00076475334986611824 0.0020881417890942868 -0.0026169433970699776 -0.00038179431346979377 0.00021787053528828372 -0.0013390508818567376 0.0013584405880807367 -0.0010020711649856462 0.0026006560327752701 -0.0013582825430754355 0.0019635047648306008 -0.001946733566676552 -0.0020893777582179757 0.0017939351727261094
leaf_weight=45.638598680496216 300.40140855312347 1080.9707064032555 47.047590494155884 459.3058488368988 825.86953794956207 77.70556378364563 367.1948110461235 428.63246887922287 95.37558776140213 55.186015844345093 59.725436985492706 426.25642991065979 461.92200076580048 163.89962738752365 342.57794952392578 1181.5414791703224 156.05964732170105 364.10502600669861 48.942601203918457 909.44532036781311 86.887924432754517 352.95546978712082 49.776036620140076 637.31440657377243 46.61931961774826 53.186116218566895 57.454871773719788 37.564568698406219 136.46472656726837 686.09168654680252 275.1955161690712 187.50209975242615 1916.9099208116531 601.72552812099457 554.86875301599503 123.09515851736069 47.568206667900085 257.18555909395218 108.78176271915436 201.32511383295059 963.76624637842178 134.7296394109726 81.9350865483284 24.581106305122375 518.48825585842133 41.020380020141602 122.25063878297806 467.19847655296326 44.006994068622589 124.92734014987946 101.35594999790192 276.38000220060349 455.02345716953278 466.1865086555481 281.31337529420853 255.12328833341599 103.95937567949295 26.141983866691589 909.83193522691727 478.07810920476913 107.3032990694046 57.320033729076385
leaf_count=59 295 1101 50 472 720 54 434 356 94 58 61 435 537 129 288 1272 141 427 48 900 74 380 53 724 36 66 42 35 161 785 244 198 1791 615 591 122 39 268 98 200 822 127 73 21 470 24 130 408 35 96 83 299 445 439 303 233 86 18 1037 578 89 50
internal_value=-0.00012364 0.00662099 -0.00831189 0.00354684 -0.014128 -0.00506786 0.0147933 -0.000949523 0.00533304 -0.00269599 -0.0150733 0.0118547 0.00451032 -0.00904888 -0.00238816 -0.00825524 0.000343776 0.00603344 -0.00906557 -0.0130368 -0.00270691 -0.00108763 0.0015845 -0.00947893 -0.00361801 -0.0112913 -0.0139266 0.00555926 -0.000931624 0.00162587 0.00659827 0.00593109 0.00730536 0.00172329 0.015117 -0.00317408 0.000490589 0.0121045 -0.00531068 -0.0143783 -0.0116646 -0.00197827 -0.000730736 0.00992595 -0.00198117 0.00124281 0.00322965 -0.00348782 -0.00444787 -0.00481156 -0.000217099 0.00314495 -0.00621361 -0.00310666 0.00169903 -0.00998689 0.00569152 -0.00117525 0.00497391 -0.0118555 0.00414716 -0.0028553
internal_weight=20357.2 11162.3 9194.92 8111.7 3291.64 5903.28 3050.58 2305.46 5806.24 2005.06 3142.04 1969.61 5346.94 640.1 3226.14 2677.14 1364.96 731.3 2507.84 2316.17 184.178 1208.9 2244.09 2458.9 2718.94 1712.81 2131.99 124.452 1284.48 822.556 3102.85 2827.66 2130.55 697.101 1238.31 2641.23 211.468 683.442 746.096 2074.54 1165.09 1153.71 1018.98 106.516 912.464 559.509 169.298 2594.61 2190.2 2146.2 502.663 401.307 1643.53 921.21 404.409 722.322 149.598 213.644 959.608 1659.62 507.201 164.623
internal_count=20319 11374 8945 8118 2999 5946 3256 2113 6005 1818 2854 2155 5533 524 2980 2966 1294 861 2786 2134 170 1153 2573 2738 2553 1916 1964 109 1483 946 2960 2716 2007 709 1294 2499 168 703 822 1922 1022 1095 968 94 874 494 180 2463 2038 2003 478 395 1525 884 425 641 145 216 1090 1850 427 139
cat_boundaries=0 1 2 3 4 5 6 7
cat_threshold=545365902 104932096 612440730 1026861460 13698178 84279296 86261792
is_linear=0
shrinkage=0.05


Tree=5
num_leaves=63
num_cat=8
split_feature=34 38 36 11 17 60 38 60 60 60 12 15 35 48 46 60 1 44 49 54 11 50 5 44 45 49 60 16 10 30 37 44 12 52 53 13 15 49 17 12 14 37 14 36 41 16 60 12 54 37 47 13 14 41 52 48 49 48 60 6 3 29
split_gain=444.487 97.1332 67.1819 25.79 20.1054 18.3292 17.7929 16.9423 14.3854 14.258 14.1466 14.1373 13.5013 12.7035 11.2081 9.8745 8.77492 8.43825 7.85427 7.40924 7.4047 8.10408 7.0965 9.86127 7.02422 6.8554 6.95298 6.42449 6.416 6.2843 6.01838 7.53453 6.18573 5.99135 5.95302 7.42715 5.91674 6.55524 6.25706 5.86281 6.98049 5.76938 5.53198 5.43055 5.51133 5.40994 5.69952 5.2388 5.2376 5.19435 5.31354 5.18407 5.10272 5.57777 5.08613 5.08557 6.0388 5.01913 6.26421 4.86737 4.8327 4.81806
threshold=0.24580048024654391 0.46681627631187445 0.17595899105072024 -0.049459850415587418 1.0000000180025095e-35 0 0.26441180706024175 1 2 3 0.086896728724241271 -0.094591155648231492 0.20817946642637256 0.32426047325134283 1.9315623044967654 4 -0.77473264932632435 2.7366070747375493 0.15319839119911197 0.15032777190208438 -0.044094622135162347 1.1745569705963137 0.69692444801330578 0.37465018033981329 -0.079401776194572435 0.14716069400310519 5 -0.019579142332077023 -0.057126812636852257 0.25466141104698187 0.12195149436593057 3.1838803291320805 0.092141352593898787 0.090245403349399581 0.10285518690943719 -0.0017235548002645371 0.18776805698871615 0.15995823591947558 73.796802520751967 0.064449425786733641 0.0023858427302911882 0.19777172058820727 0.0013551694573834541 0.21743540465831759 1.2858389616012575 0.12582702934741977 6 -0.0032427413389086719 0.20528373122215274 0.26980334520339971 0.97954314947128307 -0.00018016475223703307 0.0026306549552828078 0.8340444564819337 0.35064379870891577 0.71283006668090831 0.12248370051383974 0.73873218894004833 7 0.067245934158563628 0.29747793078422552 0.15163625776767733
decision_type=2 2 2 2 2 1 2 1 1 1 2 2 2 2 2 1 2 2 2 2 2 2 2 2 2 2 1 2 2 2 2 2 2 2 2 2 2 2 2 2 2 2 2 2 2 2 1 2 2 2 2 2 2 2 2 2 2 2 1 2 2 2
left_child=2 3 4 14 -1 28 9 -3 19 18 12 -9 25 -11 -2 29 57 24 51 30 -14 48 43 -24 27 26 -7 -13 54 59 -6 32 -32 -10 -35 -36 37 -31 39 -39 60 -28 -23 -15 -45 -18 -47 -37 52 50 55 -5 -22 -54 -4 56 -30 58 -17 -8 -41 -27
right_child=1 7 5 6 8 10 15 11 33 13 -12 17 20 22 -16 16 45 -19 -20 -21 21 42 23 -25 -26 61 41 -29 49 36 31 -33 -34 34 35 47 -38 38 -40 40 -42 -43 -44 44 -46 46 -48 -49 -50 -51 -52 -53 53 -55 -56 -57 -58 -59 -60 -61 -62 -63
leaf_value=0.0010340615159919271 0.0049941761900155401 0.0092982975457453331 0.0020798601384486369 -0.0030600683649007199 -0.0052191674539074293 -0.0015691339365380725 -0.0026205895729562653 0.013391152351763712 0.0019214287527392654 0.0024084058593881689 0.0018817784372313852 0.0038151517166123642 0.0016123543876815389 -0.002628760954294743 -0.003264430993929722 0.0005888769600936012 0.00081534843358812561 -0.0043869389122570606 0.00034070942935757209 -0.00012636766082005883 -0.0019295557225225996 -0.00058921019628084136 -0.0021047409514498186 0.0017572466813002509 0.0036215149830360464 -0.00079136312490373092 -0.0038803090437775564 -0.0016004035448550849 -0.0017553175935183492 0.0011250218387297063 -0.0032339934370823964 0.001862503069692255 0.0018302874887737713 -0.0035205389456728717 0.0016690739781069657 -0.0039275631710857292 -0.0036895885316847441 0.0031455691593862151 0.0048696246227513222 -0.0018597881438384813 0.0063142992939388748 -0.0019244974118925299 0.0025059546031878464 0.00010794419423880848 -0.0023217745813604944 -0.00041737251538121747 0.0033504650645745774 -0.0015680519036248303 0.0066149617085514978 0.00056824147583946856 -0.00012531044123505682 -0.0020630359033020824 -0.0025995754730375104 0.0024700259582451419 -0.0037359254697587139 -0.0035534799716488742 -0.00012221393665152457 0.0016193351463861085 -0.0019509660160347275 0.00073241975669074402 0.0016066636681875898 -0.0023631587813729999
leaf_weight=150.72393280267715 709.9335104227066 1705.5999346375465 165.62695497274399 205.33059412240982 777.7947690486908 246.26964956521988 112.34620189666748 319.75022882223129 72.468323647975922 323.14195281267166 252.77551680803299 96.764362633228302 93.57124400138855 98.020665287971497 30.028012990951538 288.99224668741226 1879.6313604712486 21.460295915603638 218.52890807390213 58.032495617866516 1214.253891646862 105.01070350408554 69.732282221317291 282.66355890035629 613.00142174959183 298.8436017036438 599.80920195579529 114.4463711977005 533.48726415634155 830.3468679189682 1510.2803304791451 25.49752551317215 24.792202591896057 403.52909910678864 49.47660356760025 63.579479813575745 32.380829334259033 802.62071877717972 197.18089354038239 105.60343247652054 90.404139518737793 238.61592537164688 97.664267659187317 489.85561680793762 82.856155514717102 114.51294255256653 442.39985138177872 150.531234562397 19.005274653434753 299.17438703775406 815.21000796556473 324.5913143157959 40.836794972419739 40.713491082191467 23.102994441986084 55.272863686084747 449.09904444217682 110.9343456029892 309.79099750518799 53.789295971393585 27.167251408100128 394.97542762756348
leaf_count=146 723 1709 189 190 669 309 113 352 83 341 212 115 97 76 27 321 2135 14 184 44 1313 119 51 264 733 332 550 135 556 916 1312 26 17 397 45 66 24 621 142 75 79 238 89 433 67 141 502 171 20 307 720 321 46 40 23 44 444 110 364 49 22 358
internal_value=-0.000217206 0.0065304 -0.00830014 0.00376787 -0.014044 -0.00514392 0.00288748 0.0144499 -0.0149017 -0.00102191 -0.00735645 0.00949407 -0.00822807 0.00205602 0.0126744 0.00440542 0.00256546 0.00617914 -0.0065051 -0.0168057 -0.00490652 -0.00575036 -0.000653949 0.00508418 0.00699086 -0.0112336 -0.0137218 -0.000850794 -0.00166061 0.00693159 -0.0173139 -0.0155082 -0.0159574 -0.00838352 -0.00998256 -0.00410929 0.0077084 0.00804453 0.0103757 0.0087968 0.00160112 -0.0158773 0.00353831 -0.00367646 -0.00180408 0.00399944 0.00833177 -0.00815859 -0.00718615 -0.00244467 -0.00343304 -0.00988183 -0.00757157 0.00449125 0.00716272 -0.00580614 -0.00496801 -0.00231427 -0.0041296 -0.0023723 -0.00566873 -0.00733497
internal_weight=20373.8 11103.8 9270.02 8232.78 3286.71 5983.32 7492.82 2871.02 3135.98 2094.72 3642.34 1165.42 3389.57 1346.27 739.962 5398.1 3146.26 845.672 748.451 2396.4 1611.06 1517.48 1023.13 352.396 824.212 1778.51 1084.69 211.211 2340.97 2251.84 2338.36 1560.57 1535.07 739.585 667.116 263.587 2085.7 2053.32 1222.98 1025.8 223.175 838.425 202.675 670.732 572.712 2436.54 556.913 214.111 1314.81 2152.24 1853.07 529.922 1295.8 81.5503 188.73 1037.86 982.586 709.718 598.783 166.135 132.771 693.819
internal_count=20331 11349 8982 8291 2976 6006 7541 3058 2830 1927 3723 1349 3511 1232 750 5614 3573 997 695 2068 1724 1627 891 315 983 1787 1097 250 2283 2041 2024 1355 1329 762 679 282 1879 1855 939 797 176 788 208 576 500 2778 643 237 1419 2071 1764 511 1399 86 212 1044 1000 795 685 162 97 690
cat_boundaries=0 1 2 3 4 5 6 7 8
cat_threshold=509240353 460251425 97594498 4433688 487861508 545263636 622600 36356608
is_linear=0
shrinkage=0.05


Tree=6
num_leaves=63
num_cat=8
split_feature=34 36 36 49 17 20 60 37 15 60 60 39 37 60 8 44 42 60 49 44 31 44 9 51 44 59 8 11 13 49 20 63 52 49 44 60 47 32 37 3 60 44 60 20 52 6 17 30 2 23 15 5 49 53 6 5 49 3 31 10 9 6
split_gain=409.186 87.6482 63.6377 25.476 19.3457 17.3803 22.6524 14.8837 14.2496 15.4122 13.4117 10.807 10.7884 10.6376 9.55329 9.37225 8.98565 8.76578 8.58048 8.10641 8.09369 8.07796 8.23024 10.8622 7.79066 7.68667 7.62924 7.42344 7.01974 6.93748 6.78108 6.71536 6.70793 12.8836 9.70769 7.73109 6.50297 6.99773 6.41301 6.18887 6.09925 9.93016 5.85119 5.83127 5.80179 5.79256 5.72393 5.69353 5.53394 5.29011 5.28624 5.1187 5.11761 5.03326 4.97191 4.93316 4.86886 4.84463 4.73753 5.89998 5.54765 4.71616
threshold=0.24580048024654391 0.48993448913097387 0.17486244440078738 0.25674836337566381 1.0000000180025095e-35 0.051506739109754569 0 0.12195149436593057 -0.10732635483145712 1 2 0.88496264815330516 0.20295103639364245 3 -0.055862054228782647 3.8721700906753544 0.13677885383367541 4 0.14716069400310519 2.7366070747375493 0.34927967190742498 0.17997938394546512 0.088836342096328749 0.75037166476249706 1.1401746869087221 0.095836542546749129 -0.04166127182543277 0.089874193072319045 -0.00177074852399528 0.12678595632314685 0.034640789031982429 1.5000000000000002 0.35615740716457372 0.16133093833923343 1.2204947471618655 5 0.34767335653305059 0.31595917046070104 0.19584058225154879 -0.20788718760013578 6 0.72633650898933422 7 0.044857671484351165 0.14771084487438205 0.057276122272014625 75.383346557617202 0.26625561714172369 -0.64436638355255116 3.5000000000000004 -0.051536343991756432 0.4604660570621491 0.10774463042616846 0.75201973319053661 0.068035595118999495 0.8811340630054475 0.088694807142019286 0.24167350679636004 0.29584968090057379 0.17136019468307498 0.12946640700101855 0.34426446259021765
decision_type=2 2 2 2 2 2 1 2 2 1 1 2 2 1 2 2 2 1 2 2 2 2 2 2 2 2 2 2 2 2 2 2 2 2 2 1 2 2 2 2 1 2 1 2 2 2 2 2 2 2 2 2 2 2 2 2 2 2 2 2 2 2
left_child=2 3 4 10 -1 6 16 -6 -3 53 14 17 18 54 -2 25 28 20 -8 46 47 -16 29 42 30 27 -14 32 44 52 38 -7 33 40 35 45 -33 56 -15 -13 50 -42 -24 -22 -4 -35 61 -5 -34 -50 -12 -25 -23 -10 -9 -18 -38 -28 59 60 -52 -11
right_child=1 8 5 11 7 31 12 13 9 19 15 39 26 24 21 -17 55 -19 -20 -21 43 22 23 51 -26 -27 57 -29 -30 -31 -32 36 48 34 -36 -37 37 -39 -40 -41 41 -43 -44 -45 -46 -47 -48 -49 49 -51 58 -53 -54 -55 -56 -57 -58 -59 -60 -61 -62 -63
leaf_value=0.00098235844019233117 0.005163611174506446 0.017456507066636671 0.00092071472122599862 -0.00062587076331284744 -0.0048554659473095084 0.0035141530720814032 -0.0030972339181508249 -0.0031731626061729762 0.0077803692904314858 0.0028280255305224659 0.0024537551644115058 0.0024358022090815419 0.00066433633629411296 -0.0032902910601290865 0.0027136815195063354 -0.0046537305875202833 7.3432504733846052e-05 0.0033398451150674665 -0.0017289279465341739 -0.0041485162136652353 -0.0026031127427996155 0.0008411818813734332 0.0033808758169277617 0.0021636523992883102 -0.00078051016959480586 0.0041650522693941041 -0.0017621253769947972 0.0025542520780324957 -0.0014276251202082245 0.0012156765961818168 -5.5953179043148205e-05 0.0048315613318358824 -0.0042508480792493785 0.0063720983258430362 0.0046261356288801779 -0.00049968734381732342 -0.00198816853534136 -0.0039280077462418208 0.0045990450770639364 0.0060523320309821757 0.00011909873396510479 -0.002363983723478208 0.0013924459801209878 0.00039132438812379962 -0.0015127950708645631 0.0011757367147272489 -0.00057169844602882047 0.0041227618967514396 -0.0040183981806922141 0.0026787639516229048 -0.00099735683116666395 -0.0033060729305957161 -0.00086297408020865056 -0.00072401241231571109 -4.2183937742322337e-05 0.0025145596906864438 0.00054969763452210243 -0.00063570126370627591 -0.0010423403870150978 0.0015021138873881896 0.0055837112999157449 0.0076932956622693784
leaf_weight=150.72393280267715 220.00102323293686 712.46443754434586 261.43957597017288 43.966724693775177 860.92985814809799 61.869354963302612 914.6969535946846 1157.6808481812477 933.02536898851395 581.59910696744919 130.55546194314957 199.21340394020081 161.00911968946457 552.7870751619339 179.72644871473312 48.866325378417969 496.65280431509018 484.17672401666641 466.73535931110382 22.226735055446625 115.07738983631134 348.76148098707199 383.49055302143097 36.584757506847382 296.31810891628265 104.19797366857529 1329.96669703722 170.62248140573502 977.94519942998886 1307.9249176979065 111.74051159620285 50.916474461555481 89.391525864601135 86.881087124347687 179.48434340953827 302.78562641143799 61.224294781684875 76.865977644920349 39.882117748260498 735.83724170923233 413.64257496595383 514.04023653268814 404.01125061511993 140.49709635972977 140.72697180509567 368.09591490030289 100.84388655424118 92.463696658611298 32.361475765705109 40.469625473022461 381.81145775318146 63.668842494487762 466.80742263793945 22.47500616312027 36.874847054481506 153.0711236000061 563.78224188089371 346.18505591154099 335.69887602329254 211.19428783655167 24.351835370063782 74.511936247348785
leaf_count=146 237 721 297 44 748 30 836 1116 985 649 152 208 156 432 162 37 546 447 442 15 117 400 365 27 290 118 1352 182 1060 1289 93 56 88 64 172 336 64 72 41 713 397 465 508 150 151 279 108 87 31 40 449 36 506 28 33 162 516 343 396 237 24 80
internal_value=-0.000241046 0.00623306 -0.00799637 0.00387029 -0.0136934 -0.00498203 -0.00603693 -0.0145562 0.0145887 0.0121351 0.00247398 0.00914436 -0.00863705 -0.012364 0.00468834 0.000258823 -0.00185967 0.00514413 -0.012006 0.00660957 -0.000506013 0.00400484 0.00338777 0.00743197 -0.00824848 0.000575114 -0.00614755 0.000148827 -0.00415281 0.00169442 -0.011193 0.00180789 -0.000406734 0.000136353 0.00497932 0.00249398 0.000498596 -0.000747279 -0.0133228 0.0128864 -0.00211808 -0.0050649 0.00940826 -0.00577963 0.00139743 0.00653455 0.0075743 0.00929634 -0.0103026 -2.1216e-07 0.00044297 -0.00803608 -0.00192046 0.0163939 -0.015607 0.00297488 0.000996913 -0.00714728 -0.000841001 0.00175235 -0.00176227 0.0092808
internal_weight=20373.8 11103.8 9270.02 8656.66 3206.94 6063.09 5248.43 3056.21 2447.15 1734.68 6845.43 1811.23 3218.59 2195.28 3410.98 3434.45 2029.84 876.182 1381.43 779.182 392.005 3190.98 3011.25 887.755 1000.73 3385.58 1837.16 3281.39 1380.11 2123.49 704.41 814.658 3110.76 2948.54 937.247 757.763 752.789 701.873 592.669 935.051 2011.29 927.683 787.502 255.574 402.167 454.977 756.955 136.43 162.223 72.8311 1083.61 100.254 815.569 955.5 1194.56 649.724 625.007 1676.15 953.056 617.358 406.163 656.111
internal_count=20331 11349 8982 8763 2899 6083 5345 2753 2586 1865 6997 1766 3129 2005 3530 3467 2216 845 1278 852 398 3293 3131 936 856 3430 1851 3312 1508 2195 566 738 3130 2971 851 679 708 652 473 921 2120 862 873 267 448 343 837 131 159 71 1258 63 906 1013 1149 708 580 1695 1106 710 473 729
cat_boundaries=0 1 2 3 4 5 6 7 8
cat_threshold=1046102053 456048933 960250900 13708418 545370924 100671874 8553129 690225156
is_linear=0
shrinkage=0.05


Tree=7
num_leaves=63
num_cat=9
split_feature=34 34 36 11 17 37 36 60 28 60 60 9 37 41 60 52 52 60 2 14 42 44 52 45 60 19 42 49 49 44 52 2 61 8 52 43 63 51 48 60 62 53 6 63 49 41 48 45 44 42 22 49 6 31 14 22 49 49 9 32 14 52
split_gain=377.822 80.3063 61.318 23.4813 17.4366 17.2321 16.3084 16.1445 11.2701 11.127 11.0922 9.8356 9.40102 9.06831 8.88933 8.95189 12.0196 8.57971 7.95609 7.91396 7.70455 6.93509 6.51812 6.44269 6.22382 6.16314 10.3324 6.08796 6.95272 8.69061 8.19499 6.06249 5.5634 5.51908 5.35458 5.29182 5.28983 6.86517 5.2275 5.14057 5.08558 4.83914 5.44844 4.82636 4.74798 4.70598 4.77899 7.16833 4.7035 7.52842 4.66639 4.6625 4.65166 4.62569 4.59834 4.67935 7.30399 8.78504 5.66556 4.56478 4.54443 7.77363
threshold=0.24580048024654391 0.52672162652015697 0.17486244440078738 -0.052731070667505257 1.0000000180025095e-35 0.12195149436593057 0.29048456251621252 0 0.41732478141784674 1 2 0.090322241187095656 0.23932394385337832 1.3932747244834902 3 0.10184616595506669 0.11048372462391855 4 -1.1340109109878538 -0.0053767680656164876 0.23049467802047732 1.1401746869087221 0.28677497804164892 -0.33502322435379023 5 6 0.11025608330965044 0.46143138408660894 0.17568162828683856 0.45511974394321447 0.17781227082014087 -0.92514690756797779 7 -0.052478088065981858 0.20453418046236041 0.064754553139209761 3.5000000000000004 0.37944339215755468 0.5611732304096223 8 2.5000000000000004 -0.05242375656962394 0.030450037680566314 27.500000000000004 0.23808281123638156 1.1295920610427859 0.65481463074684154 0.019695743918418888 1.3965883851051333 0.12928324192762378 14.500000000000002 0.086768478155136122 0.068035595118999495 0.18228743970394137 0.0054654181003570565 20.500000000000004 0.38383288681507116 0.44731660187244421 -0.073190428316593156 0.20825181901454928 0.0035322643816471104 0.15902157127857211
decision_type=2 2 2 2 2 2 2 1 2 1 1 2 2 2 1 2 2 1 2 2 2 2 2 2 1 1 2 2 2 2 2 2 1 2 2 2 2 2 2 1 2 2 2 2 2 2 2 2 2 2 2 2 2 2 2 2 2 2 2 2 2 2
left_child=2 3 4 24 -1 -6 13 12 19 27 52 14 35 17 -9 43 38 -5 -11 39 -21 25 34 -19 -2 26 40 28 29 -8 -31 -18 -13 -14 -10 53 -28 -38 -17 -3 51 -23 -43 -16 -37 -33 -47 -48 49 -25 -50 -12 -7 -4 55 56 -20 -58 -59 -35 61 -51
right_child=1 8 7 6 5 10 9 11 22 18 21 32 33 -15 15 16 31 23 54 20 -22 41 -24 48 -26 -27 36 -29 -30 30 -32 45 -34 59 -36 44 37 -39 -40 -41 -42 42 -44 -45 -46 46 47 -49 50 60 -52 -53 -54 -55 -56 -57 57 58 -60 -61 -62 -63
leaf_value=0.00093324051818271386 0.0020997147915533423 0.0019300653298619311 -0.0013607528515049011 -0.00055544809069503346 -0.0046126926499440325 -0.0030145044758643266 0.0052573551944709212 -8.787201366982218e-05 0.0072474026139638034 -0.0020293636321000244 -0.00029504743665279692 5.3835991236200754e-05 0.0051029676952063273 -0.0030015431555305101 -0.0029521857887366471 -0.00020870753606066627 -0.0019788242402696038 -0.0028258807160937032 0.0010786737426734889 -0.0025204042721606507 0.0024676628849864546 -0.0036114979178519372 0.011048376226448475 0.0026697145543523996 0.0055769230006439165 -0.0035429003250977394 0.00089166197755460451 -0.0011425422739832166 0.0038950607282284056 0.0014106753253923369 -0.0030462883605998853 -0.0011907643487992189 0.0038957291273575322 -0.0018975553237359538 -0.0001427215576228713 -0.0029230814744893225 0.004287725719764642 -0.0040955897201951849 0.0017031637751869695 0.0068220550449836805 -0.0010919946421923483 -0.0026898335232557555 0.00095109308415510223 0.0012743438333941955 0.0015775697245169588 0.0014687530945764499 0.0017395863010040585 -0.0013549703939315805 0.0012153215620524477 -0.0004054248161901364 -0.0017577496735739955 -0.0031476030705354335 -4.0074740855205867e-05 0.0039093132345673597 0.0040100637325279831 -5.4443219305683192e-05 0.010159065666658642 0.0048337588737996928 -0.0028781983616525068 1.8963818770231791e-05 0.00097997449451190017 0.001849946479209512
leaf_weight=150.72393280267715 206.77159202098846 111.44624888896942 33.012562096118927 1100.7374240756035 860.92985814809799 1157.6808481812477 139.85729801654816 1177.5289379954338 240.36462497711182 67.042086899280548 33.684393167495728 397.4364675283432 43.162698924541473 93.771430253982544 387.14946264028549 130.92471694946289 347.41104024648666 54.410360276699066 1472.6027178764343 49.168503284454346 255.44174069166183 60.181146204471588 1229.1295996904373 228.36017489433289 511.30447524785995 310.22493362426758 58.386281490325928 65.344846904277802 1150.6935669183731 798.50794607400894 64.975542783737183 1545.5784417390823 120.08909231424332 203.44644272327423 72.046083629131317 1045.2253651022911 20.730048000812531 28.702550172805786 99.352373421192169 210.42848151922226 116.45564216375351 81.622561872005463 154.5144008398056 42.539627552032471 55.89098447561264 95.461555421352386 25.496974229812622 43.819591999053955 68.169005990028381 874.56438153982162 95.637223839759827 136.22585588693619 36.874847054481506 49.271087527275085 100.00295221805573 871.75224894285202 121.87630420923233 33.728667080402374 27.603874921798706 220.28978151082993 359.04360830783844 429.02354949712753
leaf_count=146 217 124 35 1162 748 1116 163 1363 302 75 18 342 44 82 390 127 299 40 1705 51 270 63 1220 209 535 277 26 49 956 889 61 1459 110 214 80 1058 24 31 91 205 121 86 141 59 54 106 22 34 57 832 80 69 33 49 128 1014 137 38 32 227 297 339
internal_value=-0.000219959 0.00600107 -0.00767215 0.00390574 -0.0132644 -0.0140834 0.00314718 -0.00471326 0.0146343 0.0049736 -0.0117258 -0.00310905 -0.00892638 0.000428952 -0.00397711 -0.00553992 -0.00431299 0.000878361 0.0027756 0.0089602 0.0031608 -0.00756099 0.0169363 0.00274035 0.0125782 -0.0103368 -0.00616432 0.00759304 0.00808452 0.00503223 0.00315132 -0.00552664 0.00335431 -0.00295715 0.0104452 -0.0113522 0.00699532 -0.00495845 0.00650819 0.0144303 -0.0111372 -0.00119927 0.00200928 -0.0121879 -0.0122665 -0.00429837 0.00371469 -0.00622694 0.00320527 0.00391085 -0.00490691 -0.0166578 -0.0150207 0.000821141 0.00322164 0.00280277 0.0043638 0.0137843 -0.00157366 -0.00470184 0.00273738 0.00136058
internal_weight=20373.8 11103.8 9270.02 8935.78 3206.94 3056.21 8217.71 6063.09 2168.03 4913.99 2195.28 4412.79 1650.3 3303.72 3895.26 2717.73 2288.04 3209.95 2694.61 626.485 304.61 1000.73 1541.54 2109.21 718.076 704.41 394.185 2219.38 2154.03 1003.34 863.483 2057.77 517.526 466.899 312.411 1183.4 107.819 49.4326 230.277 321.875 286.366 296.318 236.137 429.689 1101.12 1710.36 164.778 69.3166 2054.8 1890.99 163.806 169.91 1194.56 82.2836 2627.57 2527.56 1655.81 183.209 61.3325 423.736 1662.63 1303.59
internal_count=20331 11349 8982 9097 2899 2753 8345 6083 2252 5247 2005 4402 1681 3098 3950 2587 2138 3016 3129 650 321 856 1602 1854 752 566 289 2118 2069 1113 950 1920 452 485 382 1196 81 55 218 329 208 290 227 449 1112 1621 162 56 1814 1677 137 87 1149 84 3054 2926 1912 207 70 441 1468 1171
cat_boundaries=0 1 2 3 4 5 6 7 8 9
cat_threshold=68490 218914964 13708418 437927969 113610264 738276868 4 56 542198786
is_linear=0
shrinkage=0.05


Tree=8
num_leaves=63
num_cat=11
split_feature=34 36 36 11 60 52 60 60 5 36 37 31 20 60 37 46 37 31 43 43 28 60 60 32 39 9 60 44 15 60 52 22 8 9 60 46 32 53 43 48 53 60 10 52 50 10 51 48 50 8 42 29 39 52 37 12 32 19 22 52 37 50
split_gain=346.153 73.8232 55.4449 21.8955 16.7551 18.0657 16.0592 14.6042 15.0232 13.3091 12.0752 11.8691 10.654 10.2512 9.05936 9.01345 8.83977 8.68582 8.61912 8.14789 7.09059 7.17617 6.94715 7.23358 6.88324 6.43851 6.2958 6.28489 7.84962 7.33858 6.43664 6.02158 5.96307 8.62035 8.15139 9.37376 5.81941 5.73313 5.65002 5.64309 5.42529 5.33953 5.32584 5.87665 5.16911 5.47112 5.15258 6.31126 5.12245 5.35248 5.09712 9.60655 6.28082 5.30848 5.09495 5.07879 5.07464 9.7676 5.54377 4.9395 4.89992 4.86897
threshold=0.24580048024654391 0.48993448913097387 0.17595899105072024 -0.049459850415587418 0 0.083064194768667235 1 2 -0.46010836958885187 0.27432963252067571 0.12761820852756503 0.33146178722381597 0.045259503647685058 3 0.20674557238817218 1.9315623044967654 0.23932394385337832 1.2363351583480837 0.060577204450964935 0.162786640226841 0.39663507044315344 4 5 0.27871420979499822 0.50094729661941539 -0.017879727296531197 6 0.34943106770515447 0.040256636217236526 7 0.22709140181541446 16.500000000000004 0.0033894862281158571 0.043272469192743308 8 -0.0069172049406915894 0.56143754720687877 -0.3406675904989242 0.064754553139209761 0.82361632585525524 0.12698118388652804 9 0.20595439523458484 0.12604750692844394 1.1334719657897951 -0.073613978922367082 0.7226129174232484 0.5611732304096223 1.1745569705963137 -0.052478088065981858 0.11392144858837129 0.13981919735670092 0.64256784319877636 0.11485258862376214 0.31351029872894293 -0.067632649093866334 0.50191944837570202 10 10.500000000000002 0.096802547574043288 0.41185936331748968 0.86652281880378734
decision_type=2 2 2 2 1 2 1 1 2 2 2 2 2 1 2 2 2 2 2 2 2 1 1 2 2 2 1 2 2 1 2 2 2 2 1 2 2 2 2 2 2 1 2 2 2 2 2 2 2 2 2 2 2 2 2 2 2 1 2 2 2 2
left_child=2 3 4 15 -1 -6 16 -3 24 11 -7 18 13 19 32 41 38 31 -5 55 21 37 -22 54 -9 -13 46 -20 29 -29 -31 36 34 -34 35 -12 -10 -11 -4 -27 59 -2 60 -44 45 61 47 -14 49 -18 51 52 -35 -52 -24 -8 -23 -58 -59 -15 -39 -40
right_child=1 7 6 9 5 10 12 8 17 20 14 25 26 40 -16 -17 48 -19 27 -21 22 56 23 -25 -26 39 -28 28 -30 30 -32 -33 33 50 -36 -37 -38 42 44 -41 -42 -43 43 -45 -46 -47 -48 -49 -50 -51 53 -53 -54 -55 -56 -57 57 58 -60 -61 -62 -63
leaf_value=-0.0036982888974244413 0.0017792880037192595 0.0093954698384007707 0.00014257625943671498 0.0022853222457496895 0.0014516039228057254 -0.0042314491597886979 0.0018893548519412192 0.0022352062189412531 0.0055982782386552136 -0.00074812499083738715 -0.0025866066983152029 -0.0043524391034337603 -0.001062419722310909 -0.0016077903459842974 0.0017646933495681584 -0.0035939767815278212 0.0048478193104460115 0.0066369893947040293 -0.0017145716927350286 -0.0039828279023129522 -0.00010088359596500397 0.00064633184486056214 0.002774574126753505 0.0035724235877552871 0.013875500173364958 -2.2584684512081399e-05 0.0019240211726760756 -0.0021080298573427658 0.00085231244440087974 -0.00033410775405341573 0.003963291637158345 -0.00068240215761041227 -0.0029801606189796227 -0.0022847803884249256 -0.0022562392513375031 0.00053850519823746951 -0.00045958802990285746 0.0026217823599191739 0.00034603028663244488 -0.0030625167555482034 -0.0012271940850582031 0.0055999418282888028 0.0021033656061882123 -0.00096415198336295693 -0.00016429737443881756 -0.0031233497847381071 -0.0051077431143350914 0.0011548820020304024 0.0020471539498665577 -0.0012628822538241604 -0.0026796181114808987 -0.0033270833542281735 0.0012013227069135352 0.0025177690037010108 -0.0012058568992091249 -0.0012821949591491329 -0.0032847537326148924 -0.0013852735124302601 0.0026277369284708942 0.0003805283186388675 0.00032759782128436582 -0.0033572726470122039
leaf_weight=959.95595699548721 228.28642421960831 1225.0815904140472 79.449667274951935 291.07031887769699 190.23028492927551 576.3003716468811 28.540582478046417 92.342165470123291 216.91151332855225 144.83144772052765 83.760942697525024 85.779457986354828 243.19096791744232 140.42757338285446 50.436487376689911 30.028012990951538 42.38641482591629 162.78593593835831 78.856926023960114 106.04378038644791 234.01155573129654 2046.5200128555298 52.287524044513702 845.77238899469376 372.65136903524399 119.17578119039536 409.78452026844025 417.72023260593414 637.05635517835617 783.66988188028336 101.85750359296799 275.75077301263809 483.06540048122406 28.392784893512726 594.64674431085587 112.08535659313202 101.62313032150269 1019.2903860807419 102.55127656459808 28.197523713111877 629.29681503772736 544.84161597490311 125.30835729837418 153.11312472820282 111.2824844121933 803.42628735303879 33.645364880561829 173.52171152830124 37.66121232509613 386.13944929838181 39.499717712402344 101.98275697231293 35.322222948074341 31.026969194412231 141.16710561513901 1662.6776866316795 153.97458446025848 54.244771361351013 131.13225746154785 932.54920864105225 208.46653336286545 60.743504047393799
leaf_count=1065 260 1262 81 291 187 395 29 94 252 158 52 79 226 152 50 27 43 177 69 85 272 2104 51 854 396 113 411 407 595 702 86 308 407 22 576 65 97 1112 93 14 701 531 145 172 112 826 26 132 38 403 35 75 28 19 146 1596 167 51 128 996 229 56
internal_value=-0.000308487 0.0056461 -0.00744153 0.00347761 -0.0126597 -0.0101988 -0.00457414 0.0133145 0.00916385 0.00267253 -0.0115579 -0.000299751 -0.00296765 -0.0042003 -0.00926563 0.0113423 -0.00881168 0.00488363 0.000783496 -0.00682153 0.00409709 0.00306872 0.00735315 0.00906021 0.0163163 -0.0110504 0.00200704 -0.000373829 0.000186326 -0.00203446 0.000570288 0.00206986 -0.00996394 -0.013266 -0.00695172 0.00198937 0.00675691 0.00559317 -0.0112088 -0.00466232 -0.00138143 0.0123902 0.00654193 0.000279603 -0.0121577 -0.0133332 -0.00207848 -0.000590374 -0.00303715 -0.00460075 -0.00540443 -0.0102053 0.00495934 0.00580249 0.000397991 -0.00601148 0.00129071 -0.00436086 0.00334823 0.000768167 0.00795784 -0.00494015
internal_weight=20373.8 11103.8 9270.02 8656.66 3286.71 2326.75 5983.32 2447.15 1222.06 7853.5 2136.52 2543.38 4359.68 3499.54 1560.22 803.156 1623.64 757.071 2310.23 1797.26 5310.12 4036.88 1273.24 1039.23 464.994 233.153 860.143 2019.16 1940.3 1303.25 885.527 594.285 1509.78 719.29 790.493 195.846 318.535 1651.01 1157.45 147.373 1702.27 773.128 1506.18 278.421 1078 966.721 450.358 416.713 466.187 428.526 236.224 165.698 63.715 70.5267 193.455 1691.22 2385.87 339.352 185.377 1072.98 1227.76 163.295
internal_count=20331 11349 8982 8763 2976 1911 6006 2586 1324 7945 1724 2356 4354 3559 1329 818 1652 834 2150 1710 5589 4266 1323 1051 490 206 795 1859 1790 1195 788 657 1279 586 693 117 349 1816 1168 127 1849 791 1658 317 1087 975 384 358 484 446 179 125 50 54 197 1625 2450 346 179 1148 1341 149
cat_boundaries=0 1 2 3 4 5 6 7 8 9 10 11
cat_threshold=8455168 68490 455794945 564441104 238849028 44597256 72360996 381946012 16777472 738334212 4
is_linear=0
shrinkage=0.05


Tree=9
num_leaves=63
num_cat=8
split_feature=35 34 34 60 11 60 60 11 49 37 11 22 28 9 60 60 30 49 49 34 6 49 14 60 37 47 47 45 59 49 37 49 60 44 6 9 28 13 60 22 53 54 16 31 14 52 10 49 31 10 49 9 51 53 12 47 52 11 31 49 49 2
split_gain=319.693 69.5722 56.6582 26.4261 20.7164 17.3194 15.0505 12.6259 11.9784 11.4002 10.7606 10.7476 10.3306 9.77668 13.663 11.1198 9.1103 8.85664 8.81317 8.79449 8.73878 8.24437 7.54283 7.32676 6.67421 7.11244 6.52747 6.27123 6.25306 6.24261 6.19539 5.90613 5.64106 6.94017 5.58839 5.64745 6.60299 5.33978 5.26555 5.3042 5.05948 5.05499 5.01926 5.69865 5.20679 7.46087 5.00224 7.8545 4.8569 4.70533 4.66958 4.6676 9.88684 4.81694 4.79433 4.62099 4.61601 4.50369 4.97119 4.50149 4.95232 4.5008
threshold=0.24254105985164645 0.40435785055160528 0.1836974769830704 0 -0.081963438540697084 1 2 -0.049459850415587418 0.21520669758319858 0.12761820852756503 0.030449473299086097 14.500000000000002 0.39663507044315344 0.054309058934450156 3 4 0.36910955607891088 0.3249634206295014 0.11610564216971399 0.21968208998441699 0.018366076983511451 0.22996978461742404 0.001786514127161354 5 0.19777172058820727 0.89866298437118541 0.28833086788654333 -0.22271122783422467 0.1134844981133938 0.16035194694995883 0.16725516319274905 0.2871552854776383 6 1.9621729850769045 0.090562876313924803 -0.0044378999155014745 0.32299268245697027 -0.02056982088834047 7 12.500000000000002 0.17259007692337039 0.13490542769432071 -0.063591521233320222 0.14204990118741992 0.0016722993459552529 0.1027238853275776 -0.28910261392593378 0.20455498248338702 0.18991415947675708 -0.12318453192710875 0.24413558095693591 0.056188724935054786 0.7226129174232484 0.26292581856250768 0.099084977060556426 0.81062462925910961 0.096661839634180083 0.078476000577211394 0.20753425359725955 0.30808813869953161 0.37272419035434728 -0.82405591011047352
decision_type=2 2 2 1 2 1 1 2 2 2 2 2 2 2 1 1 2 2 2 2 2 2 2 1 2 2 2 2 2 2 2 2 1 2 2 2 2 2 1 2 2 2 2 2 2 2 2 2 2 2 2 2 2 2 2 2 2 2 2 2 2 2
left_child=2 7 3 9 17 -6 18 -2 10 -1 20 16 -7 15 19 29 38 37 23 -15 -8 41 27 -4 -24 -26 -5 -22 31 -13 -28 46 33 -32 35 36 -20 -3 51 50 -21 42 43 -11 -44 -46 -17 -48 -25 -37 -40 53 54 -9 -53 -10 -34 58 -12 -52 -61 -31
right_child=1 4 6 26 5 12 8 11 55 21 57 13 -14 14 -16 28 -18 -19 34 40 22 -23 24 48 25 -27 30 -29 -30 61 32 -33 56 -35 -36 49 -38 -39 39 -41 -42 -43 44 -45 45 -47 47 -49 -50 -51 59 52 -54 -55 -56 -57 -58 -59 -60 60 -62 -63
leaf_value=-0.004141574162251512 0.0032801263303586375 -0.0017059631578482727 -0.0011543773574777553 0.00099148402394588927 0.0053182851810638677 1.9429150175053687e-05 0.0013016609389295494 0.0027743605992612652 0.00030619992079979205 0.0018099680737357115 -0.00095584890264690386 -0.00026412233981345238 0.0033555660703421643 0.0049630215541055355 0.0016114266088824922 0.0056330080602907204 0.0039183837246490353 0.016014778685450651 0.0001468822857342276 -0.0020710924795949376 -0.0037900475606861385 0.0027912848706668964 -0.0011912683705833458 -0.002013866875429197 -0.00071096964053072589 0.0018581694871091627 -0.0026326837355170381 -0.0011318583991365998 0.0088782683402498334 -0.0016836859433404878 -0.0020245352308710428 0.002798690361431272 -0.0028944003957538048 0.0037271605720692355 0.0025540439789318195 0.0026963350134816023 -0.0051699107600596799 0.0045227355104099122 -0.00013087101978750127 0.0034590298505750602 0.0028423750498989433 4.0771494108104123e-05 -0.0026882796333673703 -0.0022652499872315894 -0.0027785040996781089 5.8727396944826566e-05 -0.001233612560081368 -0.0031205160459841482 -0.0036217688803034959 -0.0017686793190319447 0.0041656240478751697 -0.00016529630297268386 -0.0016205570596386873 -0.0010669492340046897 0.0031994840326712635 0.0054716053305414597 0.00052799371223556104 -0.0016233528995900845 0.0011604658517061453 -0.0018207978443279497 0.0063542247975425167 0.0013463533794218603
leaf_weight=854.17635351419449 479.06943941116333 23.811337351799011 355.43692696094513 180.13670510053635 1495.7444968223572 650.63944739103317 115.46386271715164 519.00128251314163 64.604537308216095 21.742021799087524 137.44999384880066 606.73419785499573 840.63558977842331 32.68206512928009 1079.6067909002304 31.366853892803192 293.86982768774033 697.16696393489838 371.04890263080597 272.25022876262665 131.00277864933014 22.514771997928619 196.71495890617371 129.16292214393616 153.47601932287216 231.43330127000809 569.10784208774567 1398.5318491458893 17.346720039844513 68.115773916244507 456.44715422391891 145.00621354579926 72.76555323600769 18.336344242095947 96.055881917476654 27.561046957969666 35.703000426292419 133.37686491012573 1189.969690144062 218.46826809644699 38.584387362003326 34.218040704727173 1499.1439450979233 61.104806065559387 107.39860588312149 149.22011280059814 838.13247984647751 173.47760736942291 301.10924386978149 739.2153856754303 88.313850939273834 189.62941038608551 46.489848494529724 56.704539775848389 150.46469390392303 104.59111112356186 282.20621204376221 38.337217211723328 512.06426340341568 52.560704410076141 44.803622722625732 432.32619589567184
leaf_count=767 504 18 418 206 1598 681 105 498 71 21 131 636 859 24 1162 36 300 694 323 243 124 25 163 106 166 217 500 1360 17 62 491 167 71 18 84 21 34 149 1300 236 39 31 1437 66 118 115 960 192 244 687 100 181 36 54 143 84 279 25 460 55 52 367
internal_value=-0.000302504 0.00553272 -0.00702507 -0.0112401 0.0109488 0.00898114 -0.00347366 0.00258705 -0.00124453 -0.0142032 -0.00200102 0.00201594 0.00504544 0.000250167 0.00351185 -0.00175498 0.00432835 0.0178205 -0.00677647 -0.00509961 -0.0036907 -0.012085 -0.004425 -0.0109752 0.000413492 0.00425038 -0.00594904 -0.00626807 -0.00505443 0.00186142 -0.00714134 -0.00553579 -0.00437484 -0.00785319 -0.00422677 -0.00517844 -0.000402929 0.00704455 0.00336697 0.00156173 -0.00785502 -0.0124484 -0.0128038 -0.000712425 -0.0133714 -0.00674989 -0.00685201 -0.00746521 -0.0153221 -0.00770481 0.00041808 0.00627045 0.00206859 0.00919135 0.0050381 0.0116768 0.000472232 0.00346107 0.00445036 0.00779283 0.000323284 0.00601365
internal_weight=20373.8 10906.3 9467.48 4328.52 3841.37 2987.02 5138.96 7064.97 3083.67 2749.52 2914.47 6585.91 1491.28 3735.63 1423.12 2312.51 2850.28 854.355 2055.29 343.517 2226.62 1895.34 2111.16 785.709 581.624 384.909 1579 1529.53 1205.33 1107.18 1398.86 1187.98 829.755 474.783 1269.58 1173.53 406.752 157.188 2556.41 1594.12 310.835 1872.83 1838.61 82.8468 1755.76 256.619 1042.98 1011.61 430.272 766.776 1375.65 962.29 386.584 575.706 340.094 169.196 354.972 687.851 649.514 185.678 97.3643 500.442
internal_count=20331 11363 8968 4145 3999 3138 4823 7364 2906 2580 2751 6860 1540 3905 1468 2437 2955 861 1917 306 2135 1813 2030 768 546 383 1565 1484 1372 1065 1359 1355 859 509 1149 1065 357 167 2655 1743 282 1788 1757 87 1670 233 1188 1152 350 708 1507 912 360 552 324 155 350 616 591 207 107 429
cat_boundaries=0 1 2 3 4 5 6 7 8
cat_threshold=25235330 453953543 10825484 4286594 322923520 10487300 643862576 946151588
is_linear=0
shrinkage=0.05


Tree=10
num_leaves=63
num_cat=5
split_feature=35 15 35 33 17 60 49 6 49 31 53 60 49 20 52 49 17 44 60 36 52 44 6 44 52 52 30 37 10 51 28 1 60 53 41 28 10 41 30 41 41 60 14 10 2 50 22 51 49 63 42 10 29 52 13 49 22 53 11 10 53 40
split_gain=311.157 63.4066 52.2862 35.1473 30.8847 21.9299 10.13 10.0822 10.4313 9.93284 9.90966 9.55267 8.46966 8.36745 12.4057 14.4671 8.27062 8.02196 7.96994 8.51207 7.78055 7.273 7.05921 6.64744 6.47282 6.77145 12.6601 6.46361 6.35581 6.27941 6.2479 5.9449 5.79578 6.76545 5.75154 5.61953 5.60266 5.49702 6.55662 5.39787 5.96648 6.20796 5.00726 5.00206 5.64723 4.68457 8.3735 5.11936 7.59474 4.67193 4.56547 4.55551 10.3641 5.21358 5.0727 4.50009 4.43038 4.87839 4.42848 4.79259 4.53185 4.40345
threshold=0.24156235158443454 -0.091052606701850877 0.14505410194396975 0.34868809580802923 1.0000000180025095e-35 0 0.3249634206295014 0.086062833666801467 0.21520669758319858 0.21584468334913257 0.1389848664402962 1 0.38383288681507116 0.063328955322504057 0.35589355230331426 0.17677643150091174 77.249099731445327 0.43104580044746404 2 0.53115648031234752 0.16828241944313052 2.7366070747375493 0.018366076983511451 1.2796807885169985 0.098316658288240447 0.10460669919848443 0.23036327213048938 0.12195149436593057 -0.38644899427890772 0.57971966266632091 0.3704513162374497 -1.0273655652999876 3 0.2871359139680863 1.2687133550643923 0.25404849648475653 0.26899807155132299 1.2411692142486574 0.36910955607891088 0.23603992909193042 0.5901266634464265 4 0.0032262131571769719 -0.16870729625225064 0.31709021329879766 1.2455374598503115 7.5000000000000009 0.69942304491996776 0.17677643150091174 17.500000000000004 0.26758962869644171 0.26899807155132299 0.1464517340064049 0.17896869033575061 -0.0036227348027750845 0.16308635473251346 12.500000000000002 0.24635697156190875 -0.029008781537413594 0.25717575848102575 -0.033120000734925263 1.1378909349441531
decision_type=2 2 2 2 2 1 2 2 2 2 2 1 2 2 2 2 2 2 1 2 2 2 2 2 2 2 2 2 2 2 2 2 1 2 2 2 2 2 2 2 2 1 2 2 2 2 2 2 2 2 2 2 2 2 2 2 2 2 2 2 2 2
left_child=2 6 4 11 -1 9 32 8 22 58 -10 12 16 14 15 20 23 -15 19 30 55 43 -7 35 -24 26 -26 36 -17 34 49 -19 33 -2 -30 39 -6 38 -11 -3 -41 -42 -29 -20 56 47 -47 48 51 -5 -37 53 -53 54 -27 -13 57 61 60 -60 -4 -45
right_child=1 3 5 18 27 7 -8 -9 10 37 -12 13 -14 17 -16 28 -18 31 21 -21 -22 -23 24 -25 25 45 -28 42 29 -31 -32 -33 -34 -35 -36 50 -38 -39 -40 40 41 -43 -44 44 -46 46 -48 -49 -50 -51 -52 52 -54 -55 -56 -57 -58 -59 59 -61 -62 -63
leaf_value=0.00054488943578717057 -0.0020028614626391148 0.004126394446777322 -0.0015694762220542933 -0.0016884851719942376 -0.0040338664552633189 0.0034573711376282412 0.014478781201574779 0.00061437367248256408 0.0047647019336675318 -0.00076941983835397329 -0.0030342962114743343 -0.00059208967115412432 0.0056590964284740355 -0.0019065520342769456 -0.0028807138437823565 -0.0048405336927170002 0.0026097022433453818 -0.0021616117016936567 0.0032014873523621007 0.0068390604999293454 -0.0029423385212232686 -0.0022288568370683135 -0.0019128241079377621 0.0019339377547724303 0.0032370677096927123 -0.0018311286609824576 -0.0030217324256488387 -0.0028211129738199437 0.0010442247184466195 0.00399089629063648 0.0030553775078192656 0.0027335582203627737 0.0041119766974650144 0.0039270386432487753 -0.0038789752231963566 -0.00026107766887503161 0.00098923177835954362 -0.0036034900536455875 0.0048757230864459634 -0.0021790969768070295 -7.2504491552435876e-05 0.0019443830990990938 0.0033744553382777653 0.0027900538586102699 0.0031138628571993746 -0.002397748555424645 0.00099828780840326842 -0.0015828290316326672 0.0021881957733354577 0.002815251784434614 -0.0022655896197888593 0.0010201890527678067 -0.0023016030348347264 -0.0047081495212448103 -0.00053558738006868412 0.0016909530774549238 -0.00013437619077882185 -0.0035757635137960864 -0.0024314706587532098 0.0020157032852905479 0.0006708067631768747 -0.00097304092416833875
leaf_weight=216.54685407876968 72.17055869102478 78.694830775260925 78.592965185642242 119.07852119207382 906.58001619577408 47.433573305606842 824.88979625701904 417.54884481430054 132.55616271495819 844.71630722284317 31.506754875183105 1080.7731093168259 83.159347236156464 87.014732122421265 238.90298199653625 30.700218498706818 414.45692652463913 48.971425414085388 838.96867138147354 516.61078542470932 193.58424711227417 31.293159127235413 517.05003237724304 424.7753279209137 116.11396247148514 64.23959356546402 72.551872313022614 998.74140614271164 243.69836461544037 227.02526372671127 572.31317746639252 388.25606751441956 450.49840950965881 24.664501667022705 31.773662209510803 1027.0733471512794 20.9439936876297 115.78292453289032 30.686963319778442 124.64563083648682 506.20122545957565 435.16627871990204 28.936093628406525 305.23844468593597 685.53013300895691 71.418281316757202 296.97263497114182 260.43311107158661 89.828507304191589 96.812010049819946 37.515067458152771 37.689002156257629 253.11005651950836 85.472072005271912 1792.6827008128166 84.734140932559967 585.69066613912582 41.09683358669281 1824.3097396492958 44.233640730381012 79.353640019893646 76.716422736644745
leaf_count=218 74 72 83 85 782 38 829 342 114 905 24 1194 82 93 265 37 428 49 857 550 201 23 541 433 106 57 72 923 269 196 565 410 483 22 39 1025 13 117 29 137 545 455 26 306 732 63 261 190 83 121 40 33 196 72 1634 77 642 47 1938 43 81 84
internal_value=-0.000312133 0.00539691 -0.00695712 0.00396696 -0.0137696 -0.00493074 0.0154549 -0.00260867 -0.00341213 -0.00819159 0.00891239 0.00149927 0.00336399 -0.000708061 -0.00210444 -0.000745882 0.00294297 0.0049449 0.00765631 0.0108802 -0.00348655 0.00594808 -0.00395946 0.00190736 -0.00420922 -0.00335307 0.00581763 -0.0157545 0.00622991 0.00758675 0.00768029 0.00771022 0.0101582 -0.00134655 0.00248883 0.00080331 -0.018794 -0.004108 -0.00274589 0.00323659 0.00229744 0.00366239 -0.0130047 0.00626893 0.0046991 -0.00394109 0.0013228 -0.00469365 -0.00394476 0.000407791 -0.00180846 -0.00451984 -0.0103648 -0.00364172 -0.00308211 -0.00193917 0.00231213 0.00621123 -0.0102266 -0.0109068 -0.00214618 0.00798005
internal_weight=20504.7 11028.7 9476.03 9656.47 2171.75 7304.28 1372.22 4286.61 3869.06 3017.68 164.063 5787.12 3131.69 2655.43 2131.19 1892.29 3048.53 524.242 3869.35 1304.81 1359.09 2564.53 3705 2634.07 3657.56 3140.51 188.666 1955.2 533.198 502.497 788.204 437.227 547.333 96.8351 275.472 2209.3 927.524 991.186 875.403 1144.71 1066.01 941.368 1027.68 2533.24 1694.27 2951.85 368.391 2583.46 2323.02 215.891 1064.59 2233.19 290.799 1942.39 1856.92 1165.51 1008.74 423.052 2026.49 1868.54 157.947 381.955
internal_count=20451 11467 8984 10059 1962 7022 1408 3826 3484 3196 138 6047 3217 2830 2278 2013 3135 552 4012 1321 1472 2691 3346 2707 3308 2767 178 1744 541 504 771 459 579 96 308 2274 795 1051 934 1209 1137 1000 949 2668 1811 2589 324 2265 2075 206 1065 1992 229 1763 1691 1271 1079 437 2145 1981 164 390
cat_boundaries=0 1 2 3 4 5
cat_threshold=8462238 427707537 419957028 68231204 5652481
is_linear=0
shrinkage=0.05


Tree=11
num_leaves=63
num_cat=9
split_feature=35 43 34 60 29 60 10 2 60 41 60 52 38 8 11 0 17 16 53 51 8 12 33 17 5 44 32 39 54 61 47 30 60 30 28 43 39 5 43 14 60 13 50 60 38 60 14 20 32 22 29 2 20 50 35 14 35 41 15 51 28 41
split_gain=289.306 61.4375 51.9972 18.1198 17.3232 16.8851 12.6263 11.867 11.1506 11.1286 10.8998 10.4299 9.53101 9.20143 9.57204 9.00466 8.32786 11.0677 8.08299 7.9816 10.1243 7.83925 7.71207 7.51959 7.24911 6.94199 6.63805 6.20974 6.16592 6.14914 9.53703 6.13107 6.03876 6.02164 7.62106 5.89888 5.33603 5.29247 5.55768 5.83716 6.51296 5.66478 5.6228 5.24465 5.15722 5.10735 5.10058 4.95139 4.93908 5.53959 6.4632 6.18407 4.9068 5.23378 4.90532 4.87089 5.32727 4.79563 4.73765 6.08455 6.88988 4.72552
threshold=0.24156235158443454 0.23344218730926516 0.16473929584026339 0 0.73610585927963268 1 -0.17312597483396527 -0.64436638355255116 2 1.3120577335357668 3 0.35983638465404516 0.27896380424499517 0.052814930677413947 0.078476000577211394 -0.020118853077292439 56.03160476684571 -0.036121610552072518 -0.088824935257434831 0.65616822242736828 0.054543884471058852 -0.038491068407893174 0.23472670465707782 9.572911739349367 1.3192543387413027 2.7366070747375493 0.18049066513776782 1.1251508593559267 0.14765731990337375 4 1.5224446058273318 0.25341221690177923 5 0.086255673319101347 0.091653805226087584 0.1768240109086037 1.4359908699989321 -1.296927213668823 0.20969110727310183 0.0021749484585598115 6 0.0084381680935621279 0.56201845407485973 7 0.12501306086778644 8 0.0046064646448940047 0.060363456606864936 0.52063083648681652 15.500000000000002 0.3776956200599671 -0.071923714131116853 0.032013855874538429 0.6085893213748933 0.17974538356065753 0.0024541197344660763 0.1927052512764931 0.81975150108337413 -0.0045375456102192393 0.67295411229133617 0.22728978842496875 1.3860215544700625
decision_type=2 2 2 1 2 1 2 2 1 2 1 2 2 2 2 2 2 2 2 2 2 2 2 2 2 2 2 2 2 1 2 2 1 2 2 2 2 2 2 2 1 2 2 1 2 1 2 2 2 2 2 2 2 2 2 2 2 2 2 2 2 2
left_child=2 6 3 28 8 13 16 11 25 12 -9 32 19 21 -15 -10 17 -2 26 23 55 -4 35 -7 37 -3 -5 -26 -1 -24 -31 -14 -8 -20 -35 46 45 -12 39 40 61 -42 -40 -25 -36 -6 -23 -34 49 50 -17 -51 -50 -54 -45 56 -21 -57 -41 -60 -61 -39
right_child=1 4 5 18 36 9 7 10 15 -11 24 -13 31 14 -16 48 -18 -19 33 20 -22 22 29 43 27 -27 -28 -29 -30 30 -32 -33 47 34 44 -37 -38 38 42 58 41 -43 -44 54 -46 -47 -48 -49 52 51 -52 -53 53 -55 -56 57 -58 -59 59 60 -62 -63
leaf_value=-0.0029712480648486812 0.0037523274170143841 0.0054510430655156962 0.00090861322927206917 -0.003287236212730717 0.00070639763904544936 0.00052069122164825931 0.0011677049129294821 0.001775420350093629 0.0068030576288853261 -0.0040773952179675877 0.0034100347378726277 -0.003005171399125605 -0.0018381419137776967 0.0015486752808861527 -0.0020924372209667991 0.0054370313043463625 0.0049109770791806399 -0.0011311473070746425 0.001586862679334832 -0.00018326958063402817 0.0021260686841755544 -0.00099784764714210927 -0.00087347220025607716 -0.00098682941440748711 0.00071594860891618375 -0.0019948644234847944 -0.0014508487167012585 0.0030988176116153923 0.00024902054956645476 0.0022005528434168378 -0.0026984893873533604 0.0019863492342938288 -0.001077981896718902 -0.0024558525144970189 -0.0029007660704047436 -0.0033695423659400106 0.021257403825923619 -0.0009280126288364383 -0.0017190578523100936 0.0015381581076185872 -6.9036945553933906e-05 0.0040562746319610108 0.0050193273493696986 -0.0025199964255656227 -0.00041594530185139341 0.009154224728748021 0.0037226950412756867 0.0013394626213555222 -0.0017318165185689239 -0.0019528061518416864 0.00049341373647323326 0.002332239427241741 -3.2209324079712777e-06 0.004295998078176458 -0.0018060598747346936 -0.001583577843256762 -0.0024188656130280177 0.0026162726005780771 0.00072704464559667642 -8.7187228540397399e-05 -0.0026954890187498933 -0.0030092347173416422
leaf_weight=1714.8326749801636 273.07461428642273 1068.7016464471817 289.45774549245834 180.42702287435532 100.71332174539566 80.238032042980194 251.47064852714539 1949.2168154716492 360.00496399402618 170.74435770511627 94.154717206954956 148.15995019674301 131.8690379858017 262.80664896965027 26.670784711837769 108.70462387800217 361.92508608102798 241.58159327507019 80.539333701133728 164.81651777029037 82.754056096076965 1822.3155555129051 296.45051026344299 471.49877989292145 115.42968261241913 51.812848806381226 107.98800647258759 138.30721062421799 25.444373846054077 242.87038588523865 39.171330213546753 198.82244789600372 557.55888372659683 333.90860593318939 96.499760150909424 95.236594319343567 273.32603889703751 719.26725226640701 37.15529477596283 323.42032253742218 1068.4859300851822 34.154833436012268 151.83523899316788 533.73226320743561 538.64175415039062 430.18801367282867 42.679227292537689 145.33326148986816 74.248660266399384 174.12795108556747 215.84034299850464 213.377177298069 92.530208230018616 299.17206209897995 1084.7736086845398 46.343685925006866 242.03374862670898 72.464856386184692 735.54010796546936 67.293376624584198 107.38030600547791 45.201300859451294
leaf_count=1660 269 978 323 157 91 76 239 2245 395 147 92 151 136 238 16 123 356 236 78 125 58 1842 324 472 115 39 105 131 23 196 26 185 627 336 67 83 287 706 40 303 1133 29 137 489 518 453 42 165 80 193 238 235 108 315 979 40 192 51 797 53 76 32
internal_value=-0.000368845 0.00513608 -0.00677627 -0.0121166 0.0106527 -0.00420582 0.00261047 0.00187003 0.0087032 -0.0067041 0.00280602 -0.00286818 -0.00603929 -0.00154918 0.00693032 0.0058013 0.00825434 0.00415236 -0.00753513 -0.00699465 -0.00192241 -0.00242456 -0.00331468 -0.00841416 0.0011739 0.0125175 -0.0150142 0.00932785 -0.0155032 0.00175162 0.0068991 0.00197278 -0.000945804 -0.00554576 -0.00664042 -0.00481237 0.0170892 0.000564217 0.000227961 -0.000277963 -0.00204275 0.000431667 0.0085508 -0.00899188 -0.0034137 0.0141368 -0.00418842 -0.003316 0.00371744 0.00108993 0.00591309 -0.00293717 0.00772089 0.00995811 -0.0103445 -0.00448938 -0.00709466 0.00438859 0.00238894 0.00053574 -0.00784344 -0.00555092
internal_weight=20504.7 11028.7 9476.03 3078.28 3462.75 6397.75 7565.95 6689.37 2658.52 3280.09 5586.84 1102.52 3109.35 3117.66 289.477 1538.01 876.581 514.656 1338 2778.66 608.413 2828.18 2538.72 2170.24 3637.63 1120.51 288.415 253.737 1740.28 578.492 282.042 330.691 954.363 1049.59 969.05 1960.23 804.227 3383.89 3289.73 3100.74 1867.11 1102.64 188.991 2090 635.142 530.901 1864.99 702.892 1178 712.05 324.545 387.505 465.951 391.702 1618.51 525.659 406.85 118.809 1233.63 910.214 174.674 764.469
internal_count=20451 11467 8984 2944 3535 6040 7932 7071 2704 2950 5889 1182 2803 3090 254 1687 861 505 1261 2482 466 2836 2513 2016 3644 1017 262 246 1683 546 222 321 1031 999 921 1967 831 3398 3306 3129 1900 1162 177 1940 585 544 1884 792 1292 789 361 428 503 423 1468 408 317 91 1229 926 129 738
cat_boundaries=0 1 2 3 4 5 6 7 8 9
cat_threshold=25234690 934985763 286032261 943457300 1704 187179008 16880010 134218004 12434
is_linear=0
shrinkage=0.05


Tree=12
num_leaves=63
num_cat=10
split_feature=35 34 35 17 60 11 15 15 60 22 43 14 48 6 49 30 60 60 60 12 43 60 10 1 60 44 60 3 14 1 6 46 52 44 52 30 51 48 3 59 46 39 11 49 10 60 20 10 45 14 49 14 30 60 52 52 52 62 48 13 12 47
split_gain=268.703 60.5942 49.0125 29.8177 19.3571 19.1863 12.2931 11.7637 13.2476 11.3485 12.0646 11.5558 10.9339 10.1167 9.8849 10.5427 9.66538 8.77821 8.57901 8.21957 8.35411 8.16468 7.18505 7.12118 6.98175 6.95013 11.5203 7.90451 6.94481 9.72047 6.89071 6.82737 6.55646 6.51462 6.44489 11.4243 6.20445 5.7287 5.66788 5.47567 5.28442 5.13623 4.90391 4.7496 4.71148 4.58062 4.56934 4.45278 5.17978 4.3258 5.14263 7.47419 5.05921 5.01329 4.70619 6.6168 6.0085 5.37945 4.29749 4.282 4.2031 4.18956
threshold=0.24156235158443454 0.51748433709144603 0.14505410194396975 1.0000000180025095e-35 0 -0.035234147682785981 0.10543533414602281 -0.094591155648231492 1 17.500000000000004 0.20969110727310183 0.0038496601628139619 0.46894353628158575 0.086752839386463179 0.21520669758319858 0.20365775376558307 2 3 4 0.083822015672922148 0.1375137269496918 5 -0.24788635224103925 0.34536622464656835 6 0.68748566508293163 7 0.6914668381214143 0.002047201851382852 0.19403202086687091 0.018366076983511451 0.054351111873984344 0.098316658288240447 2.7366070747375493 0.10460669919848443 0.23036327213048938 0.85867398977279674 0.66092613339424144 -0.38021881878376002 0.10074912384152414 0.21451329439878467 1.5360326170921328 -0.029008781537413594 0.11684326082468034 0.48257981240749365 8 0.030789322219789032 -0.03865221515297889 0.10476531088352205 -0.0040570651181042186 0.17171423137187961 0.0026673106476664547 0.26989479362964636 9 0.27675437927246099 0.28142778575420385 0.23102582991123202 6.5000000000000009 0.65237930417060863 0.0057173692621290692 -0.076243143528699861 0.96595126390457164
decision_type=2 2 2 2 1 2 2 2 1 2 2 2 2 2 2 2 1 1 1 2 2 1 2 2 1 2 1 2 2 2 2 2 2 2 2 2 2 2 2 2 2 2 2 2 2 1 2 2 2 2 2 2 2 1 2 2 2 2 2 2 2 2
left_child=2 5 3 -1 19 21 9 12 33 10 17 16 -3 14 30 -16 23 -7 40 20 42 36 -18 59 -13 26 -24 39 -5 -30 -6 -12 37 -9 35 -34 -2 -32 -19 -27 -8 -28 -4 -25 -20 46 -33 48 -22 -40 51 52 53 -51 56 -56 57 -52 -37 60 -11 -57
right_child=1 7 4 28 13 6 18 8 -10 11 31 24 -14 -15 15 -17 22 38 44 -21 47 -23 25 43 -26 27 41 -29 29 -31 32 45 34 -35 -36 58 -38 -39 49 -41 -42 -43 -44 -45 -46 -47 -48 -49 -50 50 54 -53 -54 -55 55 61 -58 -59 -60 -61 -62 -63
leaf_value=0.0005865802110879419 0.0043770141158403246 0.00046874304964957122 -0.00031382319361022705 -0.0032012098499938401 0.0032395286680145202 0.0016497312785509616 -0.00212747974261386 0.0009721287632828119 0.0046683593566580169 0.0012099963589632793 0.0054265588367748757 -0.00089594884026943241 0.014976074362237128 0.00061426069725978934 -0.0030375851082764761 0.0044271493752694657 0.0021449566779528665 -0.00086454196323975947 0.0032569487068629167 0.0004402155313741511 0.0008115206801499839 0.0010201275536201135 -0.002205164573417536 -0.0031047123896579946 0.0023362872679124043 -0.00088698743820042484 0.0022016153792409456 0.0033572475283057597 -0.0022405585058152973 0.0033176337068170124 -0.0012728932336434533 -0.0026916795545765524 0.0031197007703597079 -0.0035603876795702971 -0.00071575773400228237 0.0023513436119781462 -0.0015146259302229043 -0.0032967764162132786 -0.0017986538436334217 0.0055782229051660765 0.0018101829693383893 -0.0025639042065334129 -0.0021281161651736536 0.00088152598780664732 -0.0015785625677604165 0.0032324865351211016 0.0021095248911814665 -0.0018662831626898935 -0.0010256303935259647 -0.0024767396451585641 0.0025016644025303357 0.0011386002166140191 -0.001382092444149151 0.00070950002421062283 -0.0017284327792215352 4.8564865173059135e-05 0.0095077174301548585 -0.0013407043075700676 -0.0029952359041988791 0.00091660764854857579 -0.0021222116238917739 0.0030414016321164321
leaf_weight=216.54685407876968 748.51917117834091 101.43207705020905 154.79804891347885 1761.9587349295616 47.433573305606842 858.70274871587753 82.727828145027161 328.79130399227142 1082.356318295002 46.180524110794067 364.85040038824081 100.55410432815552 685.54527080059052 409.80002599954605 35.792224228382111 129.39350646734238 101.04850405454636 450.77153867483139 625.2436854839325 164.90459656715393 172.23106187582016 549.16381180286407 110.00009280443192 44.290352761745453 318.18110364675522 918.48335641622543 346.95977699756622 75.223213195800781 159.19035589694977 34.052418828010559 429.897032558918 46.281952023506165 116.11396247148514 22.993174195289612 2954.7776641845703 20.447126150131226 25.25673907995224 89.912470102310181 42.945525586605072 21.600117266178131 31.700247406959534 28.292073309421539 2225.1452741026878 193.74211949110031 54.115840315818787 236.07938772439957 59.638951420783997 265.97998696565628 34.617212235927582 95.754357516765594 149.7150200009346 394.0036329627037 270.53268706798553 300.60913288593292 41.408213555812836 182.42929655313492 100.15481644868851 26.580054402351379 53.039577126502991 67.701055943965912 639.65329015254974 58.481418311595917
leaf_count=218 777 121 166 1580 38 910 65 343 1147 51 362 117 673 334 35 104 91 520 665 158 163 587 119 49 343 978 367 79 138 26 469 57 106 15 2592 24 20 75 42 23 27 26 2388 192 60 218 76 288 33 108 134 401 270 313 34 186 94 34 49 60 670 43
internal_value=-0.00036915 0.00493612 -0.00654422 -0.01314 -0.00458228 0.00307414 0.00209208 0.0123169 0.00961225 0.00139316 0.0032566 -0.000881352 0.0172374 -0.00240093 -0.00319708 0.00875826 -0.0021274 0.00185798 0.00797609 -0.00764577 -0.00829898 0.0086259 0.000287636 -0.00597556 0.00682201 -0.000576792 0.00434066 -0.00293214 -0.0150903 -0.00604652 -0.00373072 0.00912924 -0.00397707 0.000946947 -0.00311453 0.00580932 0.0119092 -0.00918349 0.000108144 -0.00418448 -0.00461775 0.00841553 -0.00950561 0.00148497 0.0100255 0.00403138 -0.00446526 -0.0022142 0.00327102 0.00145927 0.00187765 -0.000162569 -0.00339278 0.000193107 0.00575956 0.00119791 0.0103979 0.0047997 -0.00956837 -0.00841806 -0.00960414 0.00438959
internal_weight=20504.7 11028.7 9476.03 2171.75 7304.28 8807.58 7484.64 2221.12 1434.14 6690.85 3678.94 3011.91 786.977 4286.61 3876.81 165.186 2593.17 2972.09 793.788 3017.68 2852.77 1322.94 1601.61 991.567 418.735 1500.56 485.252 1015.31 1955.2 193.243 3711.62 706.851 3664.19 351.784 3144.38 189.601 773.776 519.81 2113.39 940.083 114.428 375.252 2379.94 238.032 679.36 342 105.921 472.828 206.848 1662.61 1619.67 1060.9 666.896 396.363 558.769 282.319 276.45 176.295 73.4867 753.535 685.834 240.911
internal_count=20451 11467 8984 1962 7022 9168 7784 2299 1505 6967 3802 3165 794 3826 3492 139 2705 3089 817 3196 3038 1384 1683 1022 460 1592 512 1080 1744 164 3353 713 3315 358 2771 179 797 544 2179 1001 92 393 2554 241 725 351 133 484 196 1659 1617 1092 691 421 525 263 262 168 73 781 721 229
cat_boundaries=0 1 2 3 4 5 6 7 8 9 10
cat_threshold=8462238 536883858 568399022 1013448836 71344128 837600041 67420177 150272 675283481 2826
is_linear=0
shrinkage=0.05


Tree=13
num_leaves=63
num_cat=9
split_feature=35 38 35 17 60 8 15 8 60 3 32 12 60 44 49 5 52 49 6 53 5 20 49 14 60 48 60 60 40 60 60 60 43 14 14 1 52 12 22 41 5 6 10 46 43 6 39 53 15 43 8 8 50 30 30 39 5 31 14 22 43 17
split_gain=242.812 54.586 48.2858 26.1783 18.3606 17.2245 16.1342 14.9803 13.4244 10.6568 8.98296 9.66665 7.75997 7.6535 7.54291 7.50939 7.37951 7.53917 7.5198 7.17375 7.10069 8.1251 8.79287 9.58964 7.731 7.69819 8.03905 6.96876 6.93177 6.92352 6.87523 6.78936 7.37217 6.33627 6.32595 7.72072 6.27852 6.13907 6.09514 6.0361 6.09141 5.8596 5.53595 6.27823 5.41958 5.66406 5.41904 5.38992 5.27184 5.23331 9.31923 6.70752 6.43571 6.20325 5.20834 5.18392 5.78214 5.53148 5.14823 5.11211 6.53966 5.04448
threshold=0.24156235158443454 0.45238657295703893 0.14505410194396975 1.0000000180025095e-35 0 -0.047232052311301224 -0.11921029165387152 0.052814930677413947 1 -0.3676986545324325 0.23590355366468432 -0.056076765060424798 2 2.7366070747375493 0.11655874922871591 0.86770042777061474 0.35615740716457372 0.18166183680295947 0.073335591703653349 0.75201973319053661 1.6241569519042971 0.046006664633750922 0.17171423137187961 -0.0035261724842712279 3 0.020949230529367927 4 5 1.0470071434974673 6 7 8 0.1768240109086037 0.00049585991655476402 0.002047201851382852 0.19403202086687091 0.13367260247468951 0.088565450161695494 18.500000000000004 1.0980261564254763 -0.23478835821151731 0.02139980718493462 -0.26336370408534998 0.30275435745716101 0.15200436860322955 0.049985956400632865 1.3410362005233767 -0.038646932691335671 0.088732212781906142 0.11576134338974954 0.0041333972476422795 0.019376039505004886 0.81444063782691967 0.17753820121288302 0.24246194958686831 0.94455629587173473 0.6724800467491151 0.31452992558479315 0.00064699709764681767 24.500000000000004 0.15723425149917605 34.521816253662116
decision_type=2 2 2 2 1 2 2 2 1 2 2 2 1 2 2 2 2 2 2 2 2 2 2 2 1 2 1 1 2 1 1 1 2 2 2 2 2 2 2 2 2 2 2 2 2 2 2 2 2 2 2 2 2 2 2 2 2 2 2 2 2 2
left_child=2 5 3 -1 -4 30 38 10 19 29 11 -6 28 -10 -14 -9 17 46 -18 61 21 22 25 -24 -23 -11 -27 37 36 -7 -2 32 41 -28 -5 -36 58 42 -3 -26 -41 -13 55 -44 49 -46 59 -35 -31 50 -43 -51 -52 -54 -49 57 -57 -25 -12 -16 -61 -8
right_child=1 6 4 34 7 9 8 15 13 20 12 31 14 -15 16 -17 18 -19 -20 -21 -22 24 23 27 39 26 33 -29 -30 48 -32 -33 -34 47 35 -37 -38 -39 -40 40 -42 44 43 -45 45 -47 -48 54 -50 51 52 -53 53 -55 -56 56 -58 -59 -60 60 -62 -63
leaf_value=0.00055725120053354543 0.0011604437161361837 0.0062758361898503706 -0.0022107127682802342 -0.0030411493574941484 0.00067215725592826171 0.0002611125629964288 0.0024302160635872152 0.0024017230754671075 0.0020636532299336042 0.0027028723121504672 -0.0013343046125101983 0.0037020629716365445 -0.0013975100549405194 -0.0033316902271731709 -0.00034970485675399625 8.2185637108271603e-05 -0.0035322667667256977 0.0036184407212683069 0.00034318655748786072 -0.002427342174300648 0.0034213902798226367 0.0022527592521452617 -0.0024422598595553692 0.010896855946953481 0.0013125865837009918 0.00033240554609540113 -0.0020699190569431272 -5.7924399027894924e-05 0.0016062262042959201 -0.001404602960281838 0.003465496978992651 -0.001669365509248324 -0.0041808941110757494 0.00038340060386122117 -0.0021285305805245321 0.0031517520214761618 -0.00107019557035573 -0.00070505730390400714 0.018836454217853779 0.0027554817774726238 -0.0011780842085883177 0.00051575437312019543 0.0041730991753570817 -4.8755972282274606e-05 -0.0016354561140229163 0.0030329668391847219 -0.0016081994560814827 -0.0021428792244173253 0.0021255863347942328 -0.0020250196346295458 0.00021789503839605236 0.0006093984354896124 -0.0029472711975852008 -0.00032294024355445966 -0.00021586256385174447 -0.0016984090602194094 -0.00023386804456552031 -0.00074290173693415749 0.001432250828125753 0.0025643715740519173 -0.0021983718239036209 0.0057721018267037245
leaf_weight=216.54685407876968 392.0668648481369 239.7662605047226 1425.7002862691879 1761.9587349295616 115.57748800516129 724.142722427845 130.63127672672272 170.42638051509857 1321.9036365151405 229.21945625543594 83.899830877780914 52.899070203304291 456.25833076238632 28.358248174190521 547.70832318067551 379.14162743091583 73.789030611515045 108.33092159032822 39.463847041130066 35.07067859172821 231.62968719005585 1033.7498349547386 59.871634483337402 36.837309420108795 610.19524937868118 774.06216579675674 321.97391033172607 412.94973391294479 351.73199021816254 787.35152858495712 552.54163509607315 1919.608998298645 62.326583385467529 287.10455524921417 159.19035589694977 34.052418828010559 270.8128359913826 122.90894377231598 466.18877166509628 63.693179428577423 249.95582324266434 191.89771741628647 360.14473032951355 80.29808908700943 32.998016953468323 42.340904057025909 72.133831143379211 174.58286732435226 65.138873338699341 229.44937032461166 118.09725570678711 81.091306388378143 137.99281889200211 114.74185699224472 250.35355174541473 38.879723489284515 27.24723619222641 49.363037645816803 116.79642248153687 84.700561106204987 24.367737412452698 870.51307076215744
leaf_count=218 410 253 1738 1580 106 750 131 134 1455 243 96 33 484 19 521 303 63 104 30 43 229 1076 60 25 592 885 336 468 366 880 560 1778 41 290 138 26 199 91 467 64 253 163 311 70 23 26 66 183 72 177 104 69 98 98 249 24 19 27 108 76 18 932
internal_value=-0.000405621 0.00463757 -0.00627566 -0.0128223 -0.00432834 0.00244089 0.0102731 -0.00307403 0.00830411 0.00158376 -0.00389034 -0.00563226 -0.0014672 0.00488735 -0.00370981 0.00477575 -0.00119314 0.000422003 -0.0131673 0.0125821 0.00263747 0.00225339 0.000709398 0.00412799 0.00479493 -0.00128256 -0.00237909 0.00516617 0.00237508 -0.00203202 0.00877893 -0.00618293 -0.00287688 -0.00523532 -0.0146497 -0.00601548 -0.00154995 0.00809363 0.0169202 0.0013959 -0.00421725 -0.00185908 0.0103164 0.0131597 -0.00276718 0.0100728 -0.00140151 -0.00264404 -0.00505253 -0.00388167 -0.000995829 -0.00909298 -0.00563198 -0.0101389 -0.00622272 0.00205937 -0.00842333 0.0101594 0.00513688 2.05285e-05 0.00990814 0.0134843
internal_weight=20504.7 11028.7 9476.03 2171.75 7304.28 7936.26 3092.43 5878.58 2386.48 6991.65 5329.02 3099.02 2229.99 1350.26 1406.75 549.568 950.494 837.241 113.253 1036.22 5415.02 5183.39 3225.8 1188.5 1957.59 2037.3 1808.08 1128.63 823.241 1576.63 944.608 2983.44 1063.83 1034.01 1955.2 193.243 471.509 715.679 705.955 923.844 313.649 1001.51 592.77 440.443 948.609 75.3389 728.91 712.041 852.49 873.27 562.73 310.541 370.832 252.735 424.936 152.327 66.127 86.2003 200.696 656.777 109.068 1001.14
